{"layers":[{"0":{},"1":{},"2":{},"3":{},"4":{},"5":{},"6":{},"7":{},"8":{},"9":{},"10":{},"11":{},"12":{},"13":{},"14":{},"15":{},"16":{},"17":{},"18":{},"19":{},"20":{},"21":{},"22":{},"23":{},"24":{},"25":{},"26":{},"27":{},"28":{},"29":{},"30":{},"31":{},"32":{},"33":{},"34":{},"35":{},"36":{},"37":{},"38":{},"39":{},"40":{},"41":{},"42":{},"43":{},"44":{},"45":{},"46":{},"47":{},"48":{},"49":{},"50":{},"51":{},"52":{},"53":{},"54":{},"55":{},"56":{},"57":{},"58":{},"59":{},"60":{},"61":{},"62":{},"63":{},"64":{},"65":{},"66":{},"67":{},"68":{},"69":{},"70":{},"71":{},"72":{},"73":{},"74":{},"75":{},"76":{},"77":{},"78":{},"79":{},"80":{},"81":{},"82":{},"83":{},"84":{},"85":{},"86":{},"87":{},"88":{},"89":{},"90":{},"91":{},"92":{},"93":{},"94":{},"95":{},"96":{},"97":{},"98":{},"99":{},"100":{},"101":{},"102":{},"103":{},"104":{},"105":{},"106":{},"107":{},"108":{},"109":{},"110":{},"111":{},"112":{},"113":{},"114":{},"115":{},"116":{},"117":{},"118":{},"119":{},"120":{},"121":{},"122":{},"123":{},"124":{},"125":{},"126":{},"127":{},"128":{},"129":{},"130":{},"131":{},"132":{},"133":{},"134":{},"135":{},"136":{},"137":{},"138":{},"139":{},"140":{},"141":{},"142":{},"143":{},"144":{},"145":{},"146":{},"147":{},"148":{},"149":{},"150":{},"151":{},"152":{},"153":{},"154":{},"155":{},"156":{},"157":{},"158":{},"159":{},"160":{},"161":{},"162":{},"163":{},"164":{},"165":{},"166":{},"167":{},"168":{},"169":{},"170":{},"171":{},"172":{},"173":{},"174":{},"175":{},"176":{},"177":{},"178":{},"179":{},"180":{},"181":{},"182":{},"183":{},"184":{},"185":{},"186":{},"187":{},"188":{},"189":{},"190":{},"191":{},"192":{},"193":{},"194":{},"195":{},"196":{},"197":{},"198":{},"199":{},"200":{},"201":{},"202":{},"203":{},"204":{},"205":{},"206":{},"207":{},"208":{},"209":{},"210":{},"211":{},"212":{},"213":{},"214":{},"215":{},"216":{},"217":{},"218":{},"219":{},"220":{},"221":{},"222":{},"223":{},"224":{},"225":{},"226":{},"227":{},"228":{},"229":{},"230":{},"231":{},"232":{},"233":{},"234":{},"235":{},"236":{},"237":{},"238":{},"239":{},"240":{},"241":{},"242":{},"243":{},"244":{},"245":{},"246":{},"247":{},"248":{},"249":{},"250":{},"251":{},"252":{},"253":{},"254":{},"255":{},"256":{},"257":{},"258":{},"259":{},"260":{},"261":{},"262":{},"263":{},"264":{},"265":{},"266":{},"267":{},"268":{},"269":{},"270":{},"271":{},"272":{},"273":{},"274":{},"275":{},"276":{},"277":{},"278":{},"279":{},"280":{},"281":{},"282":{},"283":{},"284":{},"285":{},"286":{},"287":{},"288":{},"289":{},"290":{},"291":{},"292":{},"293":{},"294":{},"295":{},"296":{},"297":{},"298":{},"299":{},"300":{},"301":{},"302":{},"303":{},"304":{},"305":{},"306":{},"307":{},"308":{},"309":{},"310":{},"311":{},"312":{},"313":{},"314":{},"315":{},"316":{},"317":{},"318":{},"319":{},"320":{},"321":{},"322":{},"323":{},"324":{},"325":{},"326":{},"327":{},"328":{},"329":{},"330":{},"331":{},"332":{},"333":{},"334":{},"335":{},"336":{},"337":{},"338":{},"339":{},"340":{},"341":{},"342":{},"343":{},"344":{},"345":{},"346":{},"347":{},"348":{},"349":{},"350":{},"351":{},"352":{},"353":{},"354":{},"355":{},"356":{},"357":{},"358":{},"359":{},"360":{},"361":{},"362":{},"363":{},"364":{},"365":{},"366":{},"367":{},"368":{},"369":{},"370":{},"371":{},"372":{},"373":{},"374":{},"375":{},"376":{},"377":{},"378":{},"379":{},"380":{},"381":{},"382":{},"383":{},"384":{},"385":{},"386":{},"387":{},"388":{},"389":{},"390":{},"391":{},"392":{},"393":{},"394":{},"395":{},"396":{},"397":{},"398":{},"399":{},"400":{},"401":{},"402":{},"403":{},"404":{},"405":{},"406":{},"407":{},"408":{},"409":{},"410":{},"411":{},"412":{},"413":{},"414":{},"415":{},"416":{},"417":{},"418":{},"419":{},"420":{},"421":{},"422":{},"423":{},"424":{},"425":{},"426":{},"427":{},"428":{},"429":{},"430":{},"431":{},"432":{},"433":{},"434":{},"435":{},"436":{},"437":{},"438":{},"439":{},"440":{},"441":{},"442":{},"443":{},"444":{},"445":{},"446":{},"447":{},"448":{},"449":{},"450":{},"451":{},"452":{},"453":{},"454":{},"455":{},"456":{},"457":{},"458":{},"459":{},"460":{},"461":{},"462":{},"463":{},"464":{},"465":{},"466":{},"467":{},"468":{},"469":{},"470":{},"471":{},"472":{},"473":{},"474":{},"475":{},"476":{},"477":{},"478":{},"479":{},"480":{},"481":{},"482":{},"483":{},"484":{},"485":{},"486":{},"487":{},"488":{},"489":{},"490":{},"491":{},"492":{},"493":{},"494":{},"495":{},"496":{},"497":{},"498":{},"499":{},"500":{},"501":{},"502":{},"503":{},"504":{},"505":{},"506":{},"507":{},"508":{},"509":{},"510":{},"511":{},"512":{},"513":{},"514":{},"515":{},"516":{},"517":{},"518":{},"519":{},"520":{},"521":{},"522":{},"523":{},"524":{},"525":{},"526":{},"527":{},"528":{},"529":{},"530":{},"531":{},"532":{},"533":{},"534":{},"535":{},"536":{},"537":{},"538":{},"539":{},"540":{},"541":{},"542":{},"543":{},"544":{},"545":{},"546":{},"547":{},"548":{},"549":{},"550":{},"551":{},"552":{},"553":{},"554":{},"555":{},"556":{},"557":{},"558":{},"559":{},"560":{},"561":{},"562":{},"563":{},"564":{},"565":{},"566":{},"567":{},"568":{},"569":{},"570":{},"571":{},"572":{},"573":{},"574":{},"575":{},"576":{},"577":{},"578":{},"579":{},"580":{},"581":{},"582":{},"583":{},"584":{},"585":{},"586":{},"587":{},"588":{},"589":{},"590":{},"591":{},"592":{},"593":{},"594":{},"595":{},"596":{},"597":{},"598":{},"599":{},"600":{},"601":{},"602":{},"603":{},"604":{},"605":{},"606":{},"607":{},"608":{},"609":{},"610":{},"611":{},"612":{},"613":{},"614":{},"615":{},"616":{},"617":{},"618":{},"619":{},"620":{},"621":{},"622":{},"623":{},"624":{},"625":{},"626":{},"627":{},"628":{},"629":{},"630":{},"631":{},"632":{},"633":{},"634":{},"635":{},"636":{},"637":{},"638":{},"639":{},"640":{},"641":{},"642":{},"643":{},"644":{},"645":{},"646":{},"647":{},"648":{},"649":{},"650":{},"651":{},"652":{},"653":{},"654":{},"655":{},"656":{},"657":{},"658":{},"659":{},"660":{},"661":{},"662":{},"663":{},"664":{},"665":{},"666":{},"667":{},"668":{},"669":{},"670":{},"671":{},"672":{},"673":{},"674":{},"675":{},"676":{},"677":{},"678":{},"679":{},"680":{},"681":{},"682":{},"683":{},"684":{},"685":{},"686":{},"687":{},"688":{},"689":{},"690":{},"691":{},"692":{},"693":{},"694":{},"695":{},"696":{},"697":{},"698":{},"699":{},"700":{},"701":{},"702":{},"703":{},"704":{},"705":{},"706":{},"707":{},"708":{},"709":{},"710":{},"711":{},"712":{},"713":{},"714":{},"715":{},"716":{},"717":{},"718":{},"719":{},"720":{},"721":{},"722":{},"723":{},"724":{},"725":{},"726":{},"727":{},"728":{},"729":{},"730":{},"731":{},"732":{},"733":{},"734":{},"735":{},"736":{},"737":{},"738":{},"739":{},"740":{},"741":{},"742":{},"743":{},"744":{},"745":{},"746":{},"747":{},"748":{},"749":{},"750":{},"751":{},"752":{},"753":{},"754":{},"755":{},"756":{},"757":{},"758":{},"759":{},"760":{},"761":{},"762":{},"763":{},"764":{},"765":{},"766":{},"767":{},"768":{},"769":{},"770":{},"771":{},"772":{},"773":{},"774":{},"775":{},"776":{},"777":{},"778":{},"779":{},"780":{},"781":{},"782":{},"783":{},"784":{},"785":{},"786":{},"787":{},"788":{},"789":{},"790":{},"791":{},"792":{},"793":{},"794":{},"795":{},"796":{},"797":{},"798":{},"799":{},"800":{},"801":{},"802":{},"803":{},"804":{},"805":{},"806":{},"807":{},"808":{},"809":{},"810":{},"811":{},"812":{},"813":{},"814":{},"815":{},"816":{},"817":{},"818":{},"819":{},"820":{},"821":{},"822":{},"823":{},"824":{},"825":{},"826":{},"827":{},"828":{},"829":{},"830":{},"831":{},"832":{},"833":{},"834":{},"835":{},"836":{},"837":{},"838":{},"839":{},"840":{},"841":{},"842":{},"843":{},"844":{},"845":{},"846":{},"847":{},"848":{},"849":{},"850":{},"851":{},"852":{},"853":{},"854":{},"855":{},"856":{},"857":{},"858":{},"859":{},"860":{},"861":{},"862":{},"863":{},"864":{},"865":{},"866":{},"867":{},"868":{},"869":{},"870":{},"871":{},"872":{},"873":{},"874":{},"875":{},"876":{},"877":{},"878":{},"879":{},"880":{},"881":{},"882":{},"883":{},"884":{},"885":{},"886":{},"887":{},"888":{},"889":{},"890":{},"891":{},"892":{},"893":{},"894":{},"895":{},"896":{},"897":{},"898":{},"899":{},"900":{},"901":{},"902":{},"903":{},"904":{},"905":{},"906":{},"907":{},"908":{},"909":{},"910":{},"911":{},"912":{},"913":{},"914":{},"915":{},"916":{},"917":{},"918":{},"919":{},"920":{},"921":{},"922":{},"923":{},"924":{},"925":{},"926":{},"927":{},"928":{},"929":{},"930":{},"931":{},"932":{},"933":{},"934":{},"935":{},"936":{},"937":{},"938":{},"939":{},"940":{},"941":{},"942":{},"943":{},"944":{},"945":{},"946":{},"947":{},"948":{},"949":{},"950":{},"951":{},"952":{},"953":{},"954":{},"955":{},"956":{},"957":{},"958":{},"959":{},"960":{},"961":{},"962":{},"963":{},"964":{},"965":{},"966":{},"967":{},"968":{},"969":{},"970":{},"971":{},"972":{},"973":{},"974":{},"975":{},"976":{},"977":{},"978":{},"979":{},"980":{},"981":{},"982":{},"983":{},"984":{},"985":{},"986":{},"987":{},"988":{},"989":{},"990":{},"991":{},"992":{},"993":{},"994":{},"995":{},"996":{},"997":{},"998":{},"999":{},"1000":{},"1001":{},"1002":{},"1003":{},"1004":{},"1005":{},"1006":{},"1007":{},"1008":{},"1009":{},"1010":{},"1011":{},"1012":{},"1013":{},"1014":{},"1015":{},"1016":{},"1017":{},"1018":{},"1019":{},"1020":{},"1021":{},"1022":{},"1023":{},"1024":{},"1025":{},"1026":{},"1027":{},"1028":{},"1029":{},"1030":{},"1031":{},"1032":{},"1033":{},"1034":{},"1035":{},"1036":{},"1037":{},"1038":{},"1039":{},"1040":{},"1041":{},"1042":{},"1043":{},"1044":{},"1045":{},"1046":{},"1047":{},"1048":{},"1049":{},"1050":{},"1051":{},"1052":{},"1053":{},"1054":{},"1055":{},"1056":{},"1057":{},"1058":{},"1059":{},"1060":{},"1061":{},"1062":{},"1063":{},"1064":{},"1065":{},"1066":{},"1067":{},"1068":{},"1069":{},"1070":{},"1071":{},"1072":{},"1073":{},"1074":{},"1075":{},"1076":{},"1077":{},"1078":{},"1079":{},"1080":{},"1081":{},"1082":{},"1083":{},"1084":{},"1085":{},"1086":{},"1087":{},"1088":{},"1089":{},"1090":{},"1091":{},"1092":{},"1093":{},"1094":{},"1095":{},"1096":{},"1097":{},"1098":{},"1099":{},"1100":{},"1101":{},"1102":{},"1103":{},"1104":{},"1105":{},"1106":{},"1107":{},"1108":{},"1109":{},"1110":{},"1111":{},"1112":{},"1113":{},"1114":{},"1115":{},"1116":{},"1117":{},"1118":{},"1119":{},"1120":{},"1121":{},"1122":{},"1123":{},"1124":{},"1125":{},"1126":{},"1127":{},"1128":{},"1129":{},"1130":{},"1131":{},"1132":{},"1133":{},"1134":{},"1135":{},"1136":{},"1137":{},"1138":{},"1139":{},"1140":{},"1141":{},"1142":{},"1143":{},"1144":{},"1145":{},"1146":{},"1147":{},"1148":{},"1149":{},"1150":{},"1151":{},"1152":{},"1153":{},"1154":{},"1155":{},"1156":{},"1157":{},"1158":{},"1159":{},"1160":{},"1161":{},"1162":{},"1163":{},"1164":{},"1165":{},"1166":{},"1167":{},"1168":{},"1169":{},"1170":{},"1171":{},"1172":{},"1173":{},"1174":{},"1175":{}},{"0":{"bias":0.1139493666561854,"weights":{"0":-0.14679792712219547,"1":-0.09647762834370724,"2":-0.022471226242477303,"3":0.13548564276312272,"4":0.10344171411525198,"5":-0.021734978479232028,"6":0.12444078250254005,"7":0.19125969298054551,"8":-0.12146521577876228,"9":0.07566403644188122,"10":-0.14750199338504336,"11":-0.004808635209689736,"12":-0.17689538375744826,"13":0.1819464046509073,"14":0.17909932611783455,"15":0.05458495244915963,"16":-0.023204736384369325,"17":-0.16998451382101906,"18":-0.0120076695530648,"19":-0.07624157202070028,"20":-0.17717790316734774,"21":-0.022970391910925397,"22":-0.0034716378512507505,"23":-0.1007218939981068,"24":-0.20262534996539772,"25":-0.16657432726914884,"26":-0.02769082794072086,"27":-0.14945018038248625,"28":-0.0733723626794528,"29":-0.1304038313411488,"30":-0.014369651008231512,"31":0.011474810950777684,"32":0.016353418217238243,"33":0.18671893737025538,"34":0.17686602596455184,"35":0.19491165123607052,"36":-0.11640340055810618,"37":-0.16262876955553346,"38":0.06720624406880024,"39":0.13003205066289567,"40":-0.09587163758212104,"41":0.15813071348848176,"42":-0.18409017791602045,"43":-0.06871970763137679,"44":-0.1518385438430263,"45":-0.1810700553411889,"46":0.16959310765712235,"47":-0.0162036758437719,"48":0.03182908143907092,"49":-0.05120132995657743,"50":-0.19826791251415907,"51":-0.10010149639567573,"52":0.1292488901584267,"53":0.03745447274870913,"54":0.034320106992592164,"55":0.09500646312238038,"56":0.007117396504092708,"57":0.08506031123943836,"58":-0.04204682999490866,"59":0.03428704216961902,"60":-0.02029429474456156,"61":0.020262471985262744,"62":0.11118775120398561,"63":-0.1276673609791724,"64":-0.0070007681406837954,"65":0.11781189080890014,"66":-0.10210513234836563,"67":0.010158344609926857,"68":0.13106214245874315,"69":0.1350941416439074,"70":-0.14382936169376714,"71":0.07869954807264307,"72":0.19103725977387379,"73":0.1718958924433899,"74":-0.16021062129468314,"75":0.14997548618409384,"76":0.032517119916030776,"77":0.019622737199275698,"78":0.009206277264103706,"79":-0.141421549063181,"80":0.13784711038827366,"81":0.121101424950129,"82":0.11539699386910585,"83":-0.12680351281955315,"84":-0.0083401853067511,"85":0.1400441023712951,"86":-0.04069430389216287,"87":-0.00004585581104202472,"88":-0.17070443046841832,"89":0.09643075643259418,"90":0.07427537163942136,"91":-0.024637896417325153,"92":-0.19274594523738867,"93":0.09373786989677342,"94":0.0946838465077007,"95":0.049839862383454156,"96":-0.06832035804806438,"97":-0.031524152390773816,"98":-0.17987162475835802,"99":0.07136721134545872,"100":0.1607346480888106,"101":-0.04032169276945455,"102":-0.1244000849927007,"103":0.04525095304461687,"104":0.14998592947159783,"105":0.06079538415629407,"106":0.05830173134625693,"107":0.030232069989096468,"108":0.05250589192514117,"109":-0.011264487105274123,"110":-0.1818701982474588,"111":0.12586897796457575,"112":-0.1945199136750311,"113":0.19527290892139818,"114":-0.15221790457727197,"115":-0.17654536699835657,"116":0.12485154107660563,"117":-0.02547304176661091,"118":-0.1962675889219933,"119":-0.06676797199592543,"120":-0.11192002162201682,"121":0.08345467304115865,"122":0.02610593931955281,"123":0.12972073698275632,"124":-0.01958604247685954,"125":-0.06459354505237266,"126":0.18909076102231276,"127":-0.09766491074643224,"128":-0.01365797470493556,"129":-0.114613101667504,"130":-0.011799060315387987,"131":-0.10036789598031035,"132":0.03738022024545348,"133":-0.04410740596196481,"134":0.016819714682481363,"135":0.15520540835200733,"136":0.007046982012514239,"137":-0.044467949416162354,"138":-0.10471570614747325,"139":0.19267057370639165,"140":0.17517789401884115,"141":-0.02274334683603314,"142":0.008277173690351223,"143":-0.05640190858855017,"144":0.049200806158305466,"145":-0.08079747333981226,"146":0.0946610801105617,"147":-0.09128835429624736,"148":0.13446098653334904,"149":0.13670934859121964,"150":-0.14044646245047285,"151":0.07865210579382655,"152":-0.04250499111168532,"153":-0.01152131715145765,"154":-0.05615383692445315,"155":0.11948710553072152,"156":0.012887559116327127,"157":0.0725215913322114,"158":0.13311940349632348,"159":-0.1371103548082779,"160":-0.16360125269591483,"161":0.06683064981561601,"162":0.10661050569574004,"163":-0.1046298839231595,"164":-0.10370152540169464,"165":0.18290013394973823,"166":-0.01629911321466592,"167":-0.18085536631186175,"168":0.0608858201865766,"169":0.08024530050611237,"170":-0.1395992479283881,"171":0.030813501379047044,"172":0.022181575364463208,"173":0.0341825963178621,"174":-0.017828136214610206,"175":-0.09242245204157125,"176":-0.17226999807975815,"177":-0.03940091340683832,"178":0.1483090802484529,"179":0.18611012341255603,"180":0.04553710504286789,"181":0.05691155959294734,"182":-0.03801599479478334,"183":0.16456069921863933,"184":-0.18882981758058476,"185":-0.010002356106909582,"186":0.1733156600388586,"187":-0.02654894038352025,"188":0.154662180972305,"189":-0.040544618867657777,"190":-0.13880010079250277,"191":0.07073838080686727,"192":0.17248247120020305,"193":0.14269128571287523,"194":0.16331005779264937,"195":-0.1388050380695388,"196":0.06660226607040555,"197":0.05269983379514837,"198":-0.18085452758924858,"199":-0.1313311592917454,"200":-0.0981527736012811,"201":-0.041361433607985734,"202":-0.05515484905556824,"203":0.025809009004621186,"204":0.15798212496617825,"205":0.1838075716621128,"206":0.10871099276753061,"207":-0.09016069516577596,"208":-0.10854810979157326,"209":-0.04087868152052917,"210":-0.008140047215856592,"211":0.18985457570595463,"212":0.07943819517480302,"213":0.17158308363032865,"214":-0.1303986497728692,"215":0.14749761994147628,"216":-0.03369733850309661,"217":-0.11979790607592722,"218":-0.03221394788344634,"219":-0.032404673797026044,"220":0.011731416400630978,"221":0.0889406131939771,"222":-0.11708349821659843,"223":-0.007114464152556659,"224":-0.0872597099882701,"225":-0.09026960166752246,"226":-0.03465868155598376,"227":0.1120816915360714,"228":-0.05515706251820979,"229":-0.05056484392337457,"230":0.20019114622321582,"231":-0.050053917973544,"232":0.12976344908305093,"233":0.1622166000623923,"234":-0.11369804509454211,"235":-0.16825477583674361,"236":-0.02820731905101871,"237":-0.13498036375638278,"238":-0.1806354300589051,"239":-0.032165375307460976,"240":0.0117610139468255,"241":-0.1522634863592633,"242":-0.03588562905675298,"243":-0.0904097750879882,"244":-0.020785293993471225,"245":0.0477621155418194,"246":-0.08004823539598352,"247":-0.1692587335438261,"248":-0.0814008838389288,"249":-0.04857800028481241,"250":-0.12223884723426444,"251":-0.03037801045449455,"252":-0.17600645245991622,"253":-0.037428709475734186,"254":0.18539145121861506,"255":0.05266099305319268,"256":0.10444139826642998,"257":-0.05171598470024071,"258":0.19784825318784818,"259":0.06934872009140823,"260":-0.1955881449021176,"261":-0.018810287874093043,"262":-0.0810075889885197,"263":0.134035972217683,"264":-0.0212924340375277,"265":-0.08389470348134219,"266":-0.06982416742386889,"267":-0.019163282581116763,"268":0.04013289774878696,"269":-0.14238370310839446,"270":-0.0942686439587105,"271":0.11380399764548398,"272":0.15742826125212053,"273":-0.022205862318633727,"274":-0.07634723512149469,"275":-0.1893682642128316,"276":-0.1406909235159061,"277":0.17711690591364757,"278":-0.11386057828146001,"279":-0.1633804633380262,"280":0.12384045228300442,"281":-0.17310321183730257,"282":-0.12264619873397667,"283":-0.12686123301945817,"284":0.03640315297728338,"285":0.0974961066512344,"286":-0.11926249073453753,"287":-0.05687408350396965,"288":0.035845685914116125,"289":-0.048221477297958636,"290":-0.09482111317298192,"291":0.06631856920072654,"292":-0.07717704715901985,"293":0.18520806894372338,"294":-0.1955711812942022,"295":0.005130659480387436,"296":0.03448829437492459,"297":0.03214613913679264,"298":-0.09316046904299216,"299":0.015112268743568674,"300":-0.02624149219402476,"301":-0.1611020993788213,"302":-0.15856623175072632,"303":0.172671497457564,"304":-0.036601621613788944,"305":0.17880986274783106,"306":0.12629750949315127,"307":-0.0993479444209854,"308":-0.18668248518037128,"309":-0.05255545405048902,"310":0.10305305488436901,"311":-0.07357536866030519,"312":0.08033086239497908,"313":0.040767125054819914,"314":0.059532140978182206,"315":-0.08586952006889269,"316":0.09972924906679924,"317":-0.07760034663836075,"318":0.0758609345467271,"319":0.2005892671014272,"320":0.06551006867467328,"321":-0.023957095005488843,"322":-0.13325275141965143,"323":0.14407468465492107,"324":0.06708880678963852,"325":0.132005433721278,"326":0.1740559239872934,"327":-0.09909065375498453,"328":0.19496481421034323,"329":0.0532888968528087,"330":0.11908401773658799,"331":-0.0395490545621963,"332":-0.07299602032395511,"333":-0.1047334606596704,"334":0.17441255398733618,"335":-0.07198040382773173,"336":-0.1898252971900613,"337":0.007789683914769062,"338":-0.010623293186357925,"339":-0.0631106530366264,"340":0.1498674140960189,"341":-0.04391728872322721,"342":-0.1940213227241245,"343":0.014195354363564653,"344":-0.14714050252137006,"345":-0.19725074146675747,"346":-0.19952133345075027,"347":0.08952063256052416,"348":0.05789476052574261,"349":0.01823647018124812,"350":0.05288096531737951,"351":-0.10539733325097449,"352":0.11830603903572941,"353":-0.15622424999137988,"354":-0.08743424617574141,"355":0.13402326282206925,"356":0.12706406446087767,"357":-0.1341733805541256,"358":0.08670336377419559,"359":-0.023678800094170147,"360":0.14075361907336528,"361":-0.06842977087629383,"362":-0.17932616598185175,"363":0.06904886850975864,"364":0.016585980151230827,"365":-0.0976697779987244,"366":0.07633876335412135,"367":0.006174183645240205,"368":-0.11937031660263489,"369":-0.003970207657369847,"370":-0.18770798130728375,"371":-0.16940128711304722,"372":0.037881143255998305,"373":-0.07601630218385741,"374":-0.10543005310921283,"375":0.09849587220973721,"376":-0.14193820383249597,"377":-0.09246036361827185,"378":-0.16991984480177247,"379":-0.15234592107379194,"380":0.01725091291703722,"381":0.18140331034639695,"382":-0.061028913021935936,"383":-0.1896424773016521,"384":-0.029097068696164078,"385":0.12436650738689882,"386":-0.07624136795115183,"387":-0.07383201434620755,"388":0.025611577529539725,"389":0.10844508715152748,"390":0.14038480994691077,"391":0.14362652339744456,"392":0.0075129900648529995,"393":-0.16817247667300758,"394":0.13761997645032864,"395":0.049640192997425135,"396":0.07741390692737969,"397":-0.10871865689867402,"398":-0.11428514064076573,"399":-0.08258733694982337,"400":0.06013261758101543,"401":0.1804883720253176,"402":0.09900805118761435,"403":-0.11200311450266175,"404":-0.1747435405217518,"405":0.18983044854091194,"406":0.1853215764139858,"407":0.03575933195887385,"408":0.03546256642529251,"409":0.11056867847907645,"410":-0.0484514342757125,"411":-0.059578503728326855,"412":-0.10296187310703045,"413":0.10407530909348622,"414":0.012189665823761084,"415":0.045229569906609944,"416":0.036272757218961484,"417":-0.18931072700569732,"418":0.09000409579710658,"419":0.1477853670434085,"420":0.18216699056541477,"421":-0.014284071790374574,"422":-0.0539279934320649,"423":-0.030057331195247203,"424":-0.11963059886094717,"425":0.010609648158145276,"426":0.12363055759112575,"427":-0.17879897867777803,"428":-0.18247339589850373,"429":-0.11986326103127795,"430":0.11793179359174726,"431":0.02918895279228534,"432":0.03686458861525281,"433":-0.12284895218051546,"434":0.07263413655175897,"435":0.13535453198332195,"436":0.10319716196775529,"437":-0.12275049190744201,"438":-0.05185789360906594,"439":0.03650738587054044,"440":0.08463734268608517,"441":-0.17480447389200277,"442":-0.15724170699845316,"443":-0.02939027792692817,"444":-0.07127100492385612,"445":0.01018723368265846,"446":-0.05185687883583109,"447":0.07435211731356925,"448":-0.1752039528287589,"449":0.18526572236156028,"450":0.11774773679118755,"451":-0.14238160249078113,"452":-0.07154468173739037,"453":-0.18306551019722042,"454":0.22017429455703133,"455":-0.15947349305833014,"456":-0.16203835333676472,"457":-0.1921657530218019,"458":-0.06120000995889002,"459":0.13527392971002755,"460":-0.08307004840309651,"461":0.04919329554046991,"462":-0.15809163662417594,"463":-0.04852799333222134,"464":0.1083476302615483,"465":-0.0017099280516337672,"466":0.16801047303659006,"467":-0.1627642034096996,"468":-0.010935687557906497,"469":-0.11898477603141963,"470":0.14786681489305128,"471":-0.1770384740179587,"472":-0.02013315020610807,"473":0.029290215497945988,"474":0.14860225605367086,"475":0.0305840614823665,"476":0.19051806935011859,"477":0.17480438133454668,"478":-0.0914210967761656,"479":0.04486942556281755,"480":-0.11310216997694494,"481":0.0773734390975376,"482":-0.16995025668309116,"483":0.05011107927945638,"484":0.1560298108104111,"485":-0.06618729288500737,"486":0.1634156359917901,"487":-0.17460028718006682,"488":-0.01783690109505919,"489":-0.1734595330875587,"490":0.06584489939614048,"491":0.15450130677321544,"492":0.05546049910780688,"493":-0.16641251158792156,"494":0.028808455512766076,"495":0.09773407749438433,"496":0.04178536538758851,"497":0.13657210409682347,"498":-0.09760756527451162,"499":-0.14398239003263477,"500":0.016546369938135796,"501":-0.06054015470285317,"502":0.07772203221090168,"503":-0.18800828400768443,"504":-0.10092963872365769,"505":0.1753122246523081,"506":-0.017423289412490654,"507":0.1265933825447637,"508":-0.16693680186737647,"509":0.06649715826335456,"510":-0.05613762861839026,"511":0.1687391448727767,"512":0.09738941505645561,"513":0.05506523443048302,"514":0.02623773582643976,"515":-0.13162429669479406,"516":-0.14918359763518818,"517":-0.16957711107458523,"518":-0.04892397541302269,"519":0.048558885112386964,"520":-0.006227208452704392,"521":0.11662017098906048,"522":0.13159251261983104,"523":0.11180060655823895,"524":0.19045696714290722,"525":-0.12953749665161338,"526":-0.1573482558215698,"527":0.10524979097026659,"528":-0.06014525148013284,"529":-0.08936856946744204,"530":0.05932112517442153,"531":-0.08975171160379357,"532":0.07853496813873233,"533":0.04064744782387826,"534":-0.04339942410091068,"535":0.04380996164315111,"536":0.18232234253266952,"537":0.10038629776452067,"538":0.12333312472749054,"539":0.01957824070745548,"540":0.06454143235105957,"541":-0.028448326923400383,"542":0.07712586922468123,"543":-0.11277929183955948,"544":-0.10299593615041483,"545":0.06842483218490897,"546":-0.20971303450693393,"547":0.05099280487724726,"548":0.15251974431859872,"549":-0.200131945630762,"550":-0.18526469073303894,"551":0.023758709420742916,"552":0.07895071467978293,"553":0.19840057869771327,"554":0.1619623670253286,"555":0.18167608795472576,"556":0.06437533746538071,"557":-0.009440331423906795,"558":-0.03289307794055304,"559":0.15142616801328312,"560":-0.167403249036734,"561":0.12902799253941294,"562":-0.1802681641678359,"563":-0.0998398788402059,"564":0.1281192825072629,"565":0.0903406501632345,"566":-0.027743474249381308,"567":0.03830992350453399,"568":0.008269364342274092,"569":0.03463599362882935,"570":-0.19346989376306908,"571":0.06917296376102616,"572":0.08954809294417385,"573":0.12395804327335139,"574":0.1371340368838452,"575":0.06674489485717557,"576":0.04454005693193712,"577":0.027397124689724654,"578":-0.17083251821125991,"579":0.016100678524732813,"580":0.17554938749897625,"581":-0.019952103433358615,"582":0.18226994220151096,"583":-0.12105124706549548,"584":-0.13267634574888798,"585":0.12395647741535261,"586":0.16020897972792542,"587":0.061848194824422414,"588":-0.05962747320087489,"589":-0.016475594515290484,"590":-0.051122736546281376,"591":-0.07504770505102594,"592":0.1660255294457828,"593":0.17267598540838808,"594":-0.13945447664302005,"595":0.034401608395275306,"596":-0.1379554877056323,"597":-0.17138030306734509,"598":-0.15263318631240808,"599":-0.13751523626607462,"600":0.0932298352903181,"601":-0.054434665640208116,"602":0.041116393637617085,"603":-0.041786152459156276,"604":-0.13633352157607112,"605":-0.039085172066178744,"606":-0.19781734266357712,"607":0.04501906982779709,"608":-0.18608312801312768,"609":0.008900042947520365,"610":-0.14737145091274875,"611":-0.013030770175864802,"612":-0.06517213314951188,"613":0.07300412110610817,"614":-0.07684096340777731,"615":0.0925393650700027,"616":-0.19271600450202653,"617":-0.13065308988349503,"618":-0.1819265479486356,"619":-0.0901213778810389,"620":-0.06686694280701304,"621":0.13031924466034056,"622":0.09987959967361572,"623":0.08085262783537842,"624":0.10089569752910907,"625":0.07471344654299769,"626":0.008792436557827498,"627":-0.07961442381810989,"628":-0.1449568528203546,"629":-0.10855071873763923,"630":-0.06457028715906277,"631":0.05993170356993137,"632":0.09177164554470839,"633":-0.1939039969482568,"634":0.1484798723023324,"635":0.1856168837817445,"636":-0.02164508836735343,"637":0.04795260518500036,"638":-0.07015537068706151,"639":-0.0033193726544130824,"640":-0.0509100707517798,"641":-0.15915100198781826,"642":-0.041375697435248694,"643":-0.17643971735532016,"644":0.043744033164307805,"645":-0.07341133591718953,"646":-0.1874853986840499,"647":-0.09641980552247288,"648":0.13504211459879417,"649":-0.0637564210069117,"650":-0.13405308438614336,"651":0.03825820197531212,"652":-0.06482884080667838,"653":-0.16461843438765403,"654":0.15202063473203334,"655":-0.0857671558690446,"656":-0.10510974481811655,"657":-0.12435178856287296,"658":-0.1254949503018923,"659":-0.16413395444314852,"660":0.034732564883847544,"661":0.010378818747077731,"662":0.03250511355143446,"663":-0.03075885370790616,"664":-0.15322511192913219,"665":0.1148053967070294,"666":-0.07940491068679292,"667":0.004290020953459754,"668":0.028152194384425486,"669":-0.08180548470202022,"670":0.18280818568012397,"671":0.023624204335822113,"672":-0.1695903168088137,"673":0.15423415858484843,"674":0.11931487097877064,"675":-0.04339166614995614,"676":-0.016399465291461142,"677":-0.18202517692484846,"678":0.008629544530472153,"679":0.022659412112520854,"680":0.01215571967620361,"681":0.021227720247635962,"682":0.009981422585661119,"683":-0.02780238762740878,"684":0.029580476720523555,"685":0.0011196397493261616,"686":-0.1478835106560818,"687":0.051105913692220985,"688":-0.07198421236193756,"689":-0.0863910959064422,"690":-0.11520406595189817,"691":0.12663073347199214,"692":-0.07759128486427411,"693":0.14987129457697576,"694":-0.04479634861924241,"695":0.1566506364660041,"696":-0.016781485840577367,"697":-0.13373987572453086,"698":-0.13009026497028298,"699":0.047220585007335225,"700":0.16715458540080688,"701":-0.030455791539342962,"702":0.18353257067809198,"703":-0.025947471356812066,"704":-0.14013705081142627,"705":-0.17198547620884516,"706":0.19310508904094353,"707":-0.14158092219493637,"708":0.08625271179597144,"709":-0.10853420707323369,"710":0.020377704066478854,"711":0.04293446511050831,"712":-0.05070259911770955,"713":-0.17198616691463267,"714":-0.023577209637247555,"715":-0.10163480590447176,"716":-0.1548162105957764,"717":-0.0061739026019852344,"718":0.04087692426880205,"719":-0.11819971926152778,"720":0.08816350234106704,"721":-0.12356781736438821,"722":0.08465284190574901,"723":-0.1522450859232419,"724":-0.18555839510687047,"725":0.16080060860848078,"726":-0.041796893991978404,"727":-0.18840647650483797,"728":-0.16736005241210627,"729":-0.027530495227994455,"730":-0.11584721605939234,"731":-0.17785151804661964,"732":-0.09371491179192822,"733":0.1008522091268323,"734":-0.012156411576680088,"735":-0.047295863295767286,"736":-0.0014705672489244098,"737":0.17542460948657987,"738":0.09317322899316495,"739":-0.03502254473170646,"740":-0.045929371830196714,"741":-0.032102012124466554,"742":-0.07360391367922413,"743":-0.19382035354058547,"744":0.0814304660270166,"745":-0.19303833539946305,"746":-0.07647726795219204,"747":-0.05114149555188184,"748":0.09734803841912819,"749":-0.06962365386681316,"750":-0.05028188871382349,"751":-0.14744034957900054,"752":0.1253642547091386,"753":-0.17627192957392293,"754":0.17888272625633228,"755":-0.118699999396661,"756":-0.1155174557174686,"757":-0.03785070876932195,"758":-0.09353363924324853,"759":0.044797412540740725,"760":0.055675542220353626,"761":0.007432781763652539,"762":-0.02575191224434862,"763":0.10205221655101185,"764":-0.07262809553574938,"765":0.19210612076978506,"766":0.11526213060685832,"767":-0.15184102506288147,"768":0.08107257513418216,"769":0.04722456761254712,"770":0.0017536430725115732,"771":-0.15855108069584647,"772":0.09775643218041792,"773":0.12394828500988016,"774":-0.0071038651186796364,"775":0.12581432670779868,"776":0.14338982468527087,"777":0.20537725587939812,"778":0.2023159327908413,"779":0.17424528455126653,"780":0.16818592184335832,"781":-0.07832692850223606,"782":0.14929995039165375,"783":0.04927629003081619,"784":0.007450564012570768,"785":0.04816630115965309,"786":-0.15580160108226865,"787":-0.16342532581255304,"788":-0.017586418026866432,"789":-0.12247158837763424,"790":0.17683010578591302,"791":-0.014857492201322466,"792":0.005587437284461691,"793":-0.1098096952962431,"794":-0.14321930765877564,"795":0.10251591369627118,"796":0.06951863487108059,"797":0.06770034057113969,"798":-0.11637850766599785,"799":-0.0414932273094844,"800":-0.044122689324838954,"801":0.00692380564919356,"802":-0.17849578717443457,"803":-0.11847969821562905,"804":0.05752092571742832,"805":0.12914492417629553,"806":0.1985466824113773,"807":0.1496843911157083,"808":-0.008243102642303964,"809":-0.1312790278901493,"810":-0.07345709418291464,"811":-0.1642489115141557,"812":-0.14535128040413287,"813":0.13476032130200305,"814":0.016872471532305575,"815":-0.14919579530267751,"816":0.1393941492274632,"817":0.08769790328994666,"818":-0.1492726747619266,"819":-0.06815999541095552,"820":-0.0816087938121522,"821":-0.13951264013150605,"822":0.16549827843261566,"823":-0.05053354666683612,"824":0.04152053784109233,"825":0.10297955683825274,"826":-0.10413261145352729,"827":0.18757479614769584,"828":-0.11156707362071454,"829":0.20267264285038186,"830":0.1670646371328056,"831":0.16747157387256748,"832":-0.14590219327769727,"833":-0.12095360532432024,"834":-0.18977962997523826,"835":0.200199899889565,"836":0.16691650079611844,"837":-0.046089944837509965,"838":0.10713535880507168,"839":-0.1571456640648743,"840":0.1642398852388694,"841":-0.06305257864463049,"842":-0.11810431360217215,"843":-0.0037496350886708743,"844":0.06781876798448785,"845":0.12342353036506554,"846":-0.06219449359495335,"847":-0.012155267794827,"848":0.05221964405998273,"849":0.09804206525161949,"850":-0.1240688871630525,"851":0.15491988735460374,"852":0.13992411824582612,"853":-0.08655810085903994,"854":-0.10882148946709606,"855":-0.017668927120721413,"856":0.013441562787920877,"857":0.1209690850280429,"858":0.15541154663513693,"859":-0.1885533362613673,"860":-0.13538835850974623,"861":-0.20223823180889516,"862":-0.18835802104720295,"863":-0.014609526450064544,"864":-0.12396219968358832,"865":-0.03324948568231234,"866":0.06522827027640418,"867":-0.032036424596360316,"868":-0.13389321948201854,"869":-0.17118465819487058,"870":-0.0929902575557526,"871":0.0283415983146838,"872":-0.01978319693244937,"873":0.20260328985311338,"874":0.12215846283024592,"875":-0.019782759707924855,"876":-0.12059685598687296,"877":-0.06674214260161049,"878":-0.18523312281483292,"879":-0.02735458519023919,"880":0.03298723061565664,"881":-0.17106303646476934,"882":-0.15045321320233948,"883":0.07379213769716286,"884":0.12495323623776294,"885":0.0999998260006611,"886":0.07894708009664812,"887":-0.023127451096592977,"888":-0.11599236739149954,"889":0.07992319156072368,"890":-0.10345812463599777,"891":0.117314679796001,"892":0.19552837981709903,"893":0.051519106495317595,"894":-0.024344646913054525,"895":-0.10544441455714632,"896":0.10500443864570379,"897":0.10460865254593285,"898":0.0002472018881148105,"899":-0.0418880789253854,"900":-0.19999075304052294,"901":0.02720368683335233,"902":-0.11357179336149165,"903":0.15081975287923394,"904":0.17345599595903655,"905":0.034275249694191816,"906":-0.1393672799044744,"907":-0.06580856835449596,"908":0.13617083080139697,"909":-0.046479701666308715,"910":-0.1344735917736872,"911":-0.17714806173099806,"912":0.03425988113138956,"913":0.16832697420469445,"914":-0.06699284524191575,"915":-0.1695741188018152,"916":0.16214462183965148,"917":0.05215122976421762,"918":-0.07560874425386002,"919":-0.1777590064935668,"920":-0.12746962718348928,"921":-0.05988552661081355,"922":0.0020769032418989676,"923":0.13890973257579528,"924":-0.06221606671144699,"925":-0.18266685842144936,"926":0.003568598149113519,"927":0.20887486200356825,"928":-0.0048355686319384965,"929":-0.19471423673894372,"930":-0.18774100494051457,"931":-0.0756056948127213,"932":0.08332670440903162,"933":-0.1420959319230343,"934":0.1438250044409026,"935":0.1069001943015622,"936":-0.015002395749539434,"937":0.01196541203347453,"938":0.10879991832785338,"939":-0.12373840411649453,"940":-0.1508289898892743,"941":0.001346801325591089,"942":0.07215367621925262,"943":0.1611825993050915,"944":-0.1741611342506017,"945":-0.11898342685697236,"946":-0.056691479955044054,"947":0.16708861785073745,"948":0.10346294296060508,"949":0.023793072258291394,"950":-0.13417771987125238,"951":-0.11574197744377686,"952":0.09834756800842442,"953":-0.03134457736578639,"954":0.12980865828615562,"955":0.065726812695811,"956":-0.10174444646711316,"957":-0.16113748591911714,"958":0.16406103229638103,"959":0.13870530401233777,"960":-0.16566748572647946,"961":-0.14329381983635228,"962":0.16586926625040477,"963":0.17855510879218003,"964":0.061463685405231054,"965":0.09242783865685812,"966":0.20818738442352464,"967":0.027751651851635143,"968":0.0827687105047667,"969":0.013646123386129232,"970":0.031087948759095638,"971":0.14569332030455454,"972":0.018276550253470338,"973":0.04245738280215044,"974":0.06672398239568916,"975":-0.04655226321532496,"976":-0.005736145920800144,"977":0.1520318499739758,"978":0.007766353221561746,"979":-0.06652885761196167,"980":0.09054799296443,"981":0.011009995525188046,"982":0.1545846906594508,"983":-0.18079606361872175,"984":-0.0673270175024332,"985":-0.1347649664564676,"986":-0.09603874348442347,"987":0.011176709837143558,"988":0.18072778561830602,"989":-0.10285594676949764,"990":-0.12451960070334031,"991":-0.022250070707594848,"992":0.1929740571023064,"993":-0.07904470887784058,"994":0.057764478477827126,"995":0.05867490350092433,"996":-0.02012618991411907,"997":-0.023284290824271036,"998":0.0957967783165226,"999":0.19598313643861273,"1000":0.10269128402445948,"1001":0.1758367913382597,"1002":0.08021488389125773,"1003":0.059261015265768886,"1004":0.1641094845732267,"1005":0.09685883485371234,"1006":0.16827737457875924,"1007":0.10501489360412046,"1008":-0.08910354242735344,"1009":-0.1388975990679896,"1010":-0.03653753408895902,"1011":0.18784045377204553,"1012":-0.035166398479741415,"1013":-0.07649636643016383,"1014":-0.11556720865081413,"1015":-0.05183974066027621,"1016":0.07726682374064581,"1017":-0.13401506237822802,"1018":-0.09854962851254513,"1019":0.08267057771827076,"1020":0.05267194813759178,"1021":-0.1699873190015352,"1022":0.09433150810511932,"1023":-0.1765463867194105,"1024":-0.06965431978558255,"1025":0.11382294544491584,"1026":0.1883027935501311,"1027":-0.1522361539700793,"1028":-0.15404530589831558,"1029":0.07237779594492888,"1030":-0.013563295436140883,"1031":-0.14316632580916297,"1032":0.042088264391251885,"1033":-0.17440203340090904,"1034":0.14034962580147242,"1035":0.10278022540740048,"1036":0.19652418607621464,"1037":0.10418102250815149,"1038":0.11971031770966721,"1039":-0.0237615621675518,"1040":-0.06607023754524054,"1041":0.02906952387483715,"1042":0.0027393841353318565,"1043":0.01805457110970849,"1044":0.1565686298012443,"1045":0.18302515278718384,"1046":0.0917977716468936,"1047":0.10921447515250877,"1048":0.008041536929373462,"1049":0.19789710887266312,"1050":-0.07358615462121001,"1051":0.09937800141838433,"1052":-0.08153270487086284,"1053":-0.1759037348065721,"1054":0.08209464747440086,"1055":-0.033940627915542504,"1056":-0.1736685414378836,"1057":-0.0010926910579404706,"1058":0.010402703374793834,"1059":-0.1835119462991076,"1060":0.17378825588079092,"1061":0.16134102143217685,"1062":-0.19190072972208486,"1063":0.19132923405873495,"1064":0.023930028194937895,"1065":-0.07624336235140255,"1066":0.023785314127086312,"1067":0.18892617431225503,"1068":0.01970931713938324,"1069":-0.010006009258336775,"1070":0.13417545273188747,"1071":-0.04129659519215885,"1072":0.20540637404012713,"1073":0.049067535859266265,"1074":0.07139722475661416,"1075":0.0453623237338493,"1076":0.06607428889588969,"1077":-0.08922275165264874,"1078":0.026830089698586447,"1079":-0.06258669129801023,"1080":-0.02498395937379521,"1081":0.17699986408059698,"1082":0.10699657881616016,"1083":0.012026281504139152,"1084":0.17389044067373893,"1085":0.09600021419258654,"1086":-0.15262838115981467,"1087":0.0047274504943606065,"1088":-0.06178070924649037,"1089":0.1857410628311883,"1090":0.16735634694973706,"1091":-0.02879263035200064,"1092":0.15029092935729696,"1093":-0.20013962021413248,"1094":0.023618392658363668,"1095":0.1988868316225989,"1096":0.041738453549593574,"1097":0.09331670950401887,"1098":-0.09781553134702453,"1099":0.17088281299083008,"1100":-0.09312906126827179,"1101":-0.018014818562204563,"1102":0.16647169159289782,"1103":0.0705029508785984,"1104":0.020830500424578704,"1105":-0.18605158414017736,"1106":-0.005651270382708695,"1107":-0.0882199698323578,"1108":0.024678979277328372,"1109":-0.09455990324443678,"1110":0.1534257114585471,"1111":0.0944604034543409,"1112":0.09550109325998883,"1113":0.16872895564872903,"1114":0.14737320477533736,"1115":0.079802444815118,"1116":-0.15084506087467148,"1117":-0.07257094754499255,"1118":0.19749805661067682,"1119":-0.03136074121234514,"1120":-0.07128007450571934,"1121":0.05897794253430147,"1122":0.029635255295640362,"1123":0.20075957503614691,"1124":0.06517340705901667,"1125":0.12853659610302728,"1126":0.02280965722491708,"1127":0.1891431695708859,"1128":-0.20110224801003707,"1129":0.03841361624109244,"1130":-0.02090358542330031,"1131":0.10466434188013528,"1132":-0.19685020000714765,"1133":0.18306744702833258,"1134":0.05024109766693905,"1135":-0.04957797484636116,"1136":0.03354202643900958,"1137":-0.08221313888050011,"1138":0.14704788837948746,"1139":0.16856217392682882,"1140":0.07089995605883413,"1141":0.0274700103968425,"1142":0.10390019163599866,"1143":0.12014319456437818,"1144":0.1472329907396382,"1145":0.04487918279774099,"1146":0.04778618469736268,"1147":0.11452719617960583,"1148":-0.010020411497745286,"1149":-0.061710751771762766,"1150":-0.15143194821001904,"1151":0.16804581124762175,"1152":-0.17763512210082325,"1153":0.2071134827537225,"1154":-0.1333373552706754,"1155":-0.13288856615857883,"1156":-0.09967248995949898,"1157":-0.007788734683883097,"1158":0.14403412869438045,"1159":0.20254272548364144,"1160":-0.08564583905232744,"1161":0.15848499309621836,"1162":-0.0386385054773378,"1163":-0.012437057114992598,"1164":0.007779955049071788,"1165":0.1858849812083882,"1166":0.06358313672795164,"1167":0.026492284100594454,"1168":0.03316640969626489,"1169":0.05750313367620297,"1170":-0.14161908978171608,"1171":0.09295782915047245,"1172":0.11469520797480287,"1173":0.04454817068595122,"1174":-0.029530170684053853,"1175":-0.008193482550980952}},"1":{"bias":-0.1433881885503751,"weights":{"0":-0.12351519709766817,"1":0.08972350908266151,"2":0.0628776843894501,"3":0.11935704874985584,"4":0.025020112548301443,"5":-0.17647923962396297,"6":0.13906450684990096,"7":-0.1620188020864572,"8":0.08351137510903076,"9":-0.09504985293683288,"10":0.04624691083563526,"11":0.13124885812042186,"12":0.06525907228475582,"13":-0.06507989025876411,"14":0.023384354053094802,"15":0.08090688613865557,"16":-0.12070907999708137,"17":0.030431202636304975,"18":0.12448801085719964,"19":0.17355887209891807,"20":-0.08291631312644175,"21":-0.088062455903907,"22":0.1291439169221073,"23":-0.1764688812225104,"24":0.18972639258228988,"25":0.0036917145185809404,"26":0.1866659443964158,"27":-0.10541566296861755,"28":-0.013597780129964557,"29":-0.17442543226705884,"30":-0.09052158114951629,"31":-0.07544733367618117,"32":-0.05883509135364094,"33":-0.01994759056539738,"34":0.08076025235662981,"35":-0.11445840953235763,"36":-0.02215186669677015,"37":-0.17602273883846672,"38":-0.029808255752669034,"39":0.18298112858241,"40":0.1934902840194474,"41":0.06486042020220024,"42":0.04230395742740848,"43":0.0633978252219732,"44":0.1468947066883255,"45":0.22792977872408973,"46":0.19025949861921107,"47":-0.1898649161050475,"48":-0.09940055060208271,"49":0.09265687417037233,"50":-0.18038300912352473,"51":0.13689227333978193,"52":0.039181815346628165,"53":0.1889409433621016,"54":0.09942724953543769,"55":-0.21531367949093125,"56":0.1329667225053394,"57":0.014236872860634207,"58":-0.037234315971084925,"59":0.04293084905062775,"60":0.13489090833519152,"61":-0.19505575090975494,"62":0.1573928157979708,"63":-0.02117134969669212,"64":-0.14670191944412067,"65":0.11468264654506596,"66":0.13125260550088175,"67":-0.2181806802530914,"68":-0.09876649251080374,"69":-0.04144255979308249,"70":0.19441794021810863,"71":-0.011400918717966169,"72":0.13317321279753225,"73":0.0775335977388077,"74":0.05184873957205341,"75":-0.031668341746061576,"76":-0.03817176326225169,"77":-0.02152185730126625,"78":-0.17720784405781137,"79":-0.18407278357623352,"80":0.04043248762335609,"81":-0.10493719555796169,"82":0.15529102477263462,"83":-0.17260859206470985,"84":0.07540963349574377,"85":-0.11645990510577121,"86":-0.09116812741297423,"87":0.20292381574861565,"88":-0.04570063069408148,"89":0.11993101876631349,"90":0.07630680302990103,"91":-0.06887468389032272,"92":-0.10627426034090258,"93":0.06724036097763188,"94":0.17843580641433843,"95":-0.008975129032619046,"96":-0.0034741968072594495,"97":-0.03409552087911482,"98":0.01244266265148281,"99":0.105791334349808,"100":0.11735485332166622,"101":-0.17349417212519713,"102":-0.0698961180178802,"103":0.027171716967618855,"104":-0.10665358587796023,"105":0.024707630178664095,"106":-0.10097431031110451,"107":0.08543579896117215,"108":0.14034188237998227,"109":-0.033739796345095434,"110":-0.1418227662176811,"111":0.12232827458314853,"112":0.042775496172386386,"113":0.0354487885077944,"114":-0.10368246034919301,"115":0.14860503197998876,"116":-0.07725668577381789,"117":0.09417454400094619,"118":-0.02282033708764578,"119":-0.1556038538055229,"120":-0.1783092523330859,"121":0.10212348397038587,"122":0.07897954908763362,"123":0.10250433922871183,"124":-0.093414482893539,"125":-0.21139427707250918,"126":-0.03259885008213523,"127":0.001917347294839784,"128":0.11283156647722016,"129":0.16294235387009912,"130":0.17322600704820884,"131":0.09558785787641486,"132":0.15936135800157883,"133":0.12218874638538955,"134":0.04367496823470119,"135":-0.030709210714588982,"136":-0.16623012834335463,"137":0.05779487232470466,"138":0.003786415052768808,"139":0.021160322426932904,"140":0.20495598035024876,"141":0.15814489263395887,"142":0.006736262697440561,"143":-0.11818124346728565,"144":-0.13786895174794486,"145":-0.031726239630892585,"146":0.028142881306160994,"147":0.1689000939776195,"148":-0.18818875974751642,"149":0.12291268579224582,"150":-0.17038845205337985,"151":0.13129052862248147,"152":-0.19980778983752112,"153":-0.13450898886025703,"154":-0.0646049434711196,"155":-0.19532839543241848,"156":-0.16198551975114814,"157":0.01214784000860872,"158":-0.1600591852715946,"159":-0.10314586567459201,"160":0.04839811792028568,"161":-0.03371258075386867,"162":-0.01952032508687747,"163":0.046731054151252976,"164":0.03686444708201901,"165":-0.030666960904610442,"166":-0.010932809840504973,"167":-0.12406690254231934,"168":0.12105265647849377,"169":0.17879433320448745,"170":0.012766958064370212,"171":0.19297435986879347,"172":-0.1495496264325474,"173":0.09662215944538549,"174":0.1647672461105267,"175":0.11181206685818734,"176":0.1873821637242421,"177":0.13106546065261399,"178":0.032477512809567,"179":-0.12425070449614765,"180":0.11157309455343122,"181":-0.09012977814211558,"182":0.1445364698609176,"183":0.13091342302817066,"184":0.1205737985866009,"185":-0.11605371567837729,"186":-0.08725459351536123,"187":0.05889416634451238,"188":-0.13809086087325242,"189":0.02494736418619437,"190":-0.11295819827552554,"191":0.052909935694628096,"192":0.17075928017324465,"193":-0.0796262859946444,"194":-0.06545698069128607,"195":-0.13749250569136687,"196":0.12576780830217127,"197":-0.11524271580830965,"198":0.1605777162583931,"199":0.14187242947932652,"200":-0.043832952572945054,"201":0.07670783053806075,"202":0.04864639778676717,"203":0.0015134027746808595,"204":0.0677086786173005,"205":-0.16038503865013945,"206":0.01487115589101436,"207":0.10346010195733069,"208":0.011319279048929458,"209":0.02142676193643592,"210":0.024601155315083428,"211":0.012546259485350264,"212":-0.196680314347566,"213":-0.15064383805955814,"214":-0.1546505200266753,"215":0.10057115525215783,"216":0.02358475150158534,"217":0.16268788259039652,"218":0.12024741542668561,"219":-0.05268405156415834,"220":-0.16120410558071527,"221":-0.13669576202178202,"222":-0.14196565105348632,"223":-0.12030866915526689,"224":0.07208415269755174,"225":-0.05953967575081657,"226":0.016849927849677423,"227":-0.035021056129671706,"228":-0.10059741236025475,"229":0.16280324153916528,"230":0.13007986949074274,"231":0.014005346987370918,"232":-0.15246571863339564,"233":0.024160322416247895,"234":-0.11930937231659938,"235":-0.056113057526187754,"236":-0.0074282080319384046,"237":-0.07884752165803724,"238":-0.036514125840372,"239":0.17115698065202326,"240":-0.0012638624468592115,"241":0.06912841068396636,"242":0.05917579740116465,"243":0.14611736571486536,"244":-0.008909706838583267,"245":-0.12919584090110575,"246":0.07486504652643694,"247":0.03869996763421499,"248":-0.011064979113202898,"249":0.06371450478822087,"250":0.033969102478057456,"251":-0.09174316528866931,"252":-0.1464465343184709,"253":-0.0036177474726365472,"254":0.07271611279843876,"255":-0.10594380570614806,"256":-0.15332429540113904,"257":0.1183600518983695,"258":-0.035475887395197823,"259":-0.08563678362118153,"260":-0.06212251394259336,"261":0.05569362812307866,"262":0.13015303075475637,"263":-0.024890099828556774,"264":-0.015368272265721726,"265":-0.08489345092509054,"266":0.016119326568723898,"267":-0.0861616787635395,"268":-0.20969928571565646,"269":0.1916767402010832,"270":0.1198690073687509,"271":-0.14840350443856756,"272":-0.11972216956619842,"273":0.11197415828816634,"274":-0.06424914669737995,"275":-0.08200366521409082,"276":-0.03697974111368655,"277":0.10155990236253912,"278":-0.13668455761326148,"279":0.23247598775034417,"280":-0.16579655595677217,"281":-0.10916839422338012,"282":0.13191195287308277,"283":-0.07548035807264217,"284":0.20116422850424098,"285":-0.06492781503526994,"286":-0.11410441635616067,"287":-0.022966526749576013,"288":0.04569823563394452,"289":-0.21275838200996264,"290":0.19498360905101014,"291":0.20241087127623328,"292":-0.07851593672768548,"293":-0.1562314330671928,"294":0.06422364784992936,"295":0.08957707466208374,"296":0.10748103562295516,"297":0.05717697421908751,"298":0.05882642362094955,"299":0.0009446628125456926,"300":0.03034855648460644,"301":-0.10712405140060016,"302":-0.07949783634204838,"303":0.1132386351824636,"304":0.018892977271197348,"305":-0.21387409951938932,"306":0.01832916058702598,"307":0.17570838488792906,"308":0.10013293400947446,"309":0.042560983852859585,"310":-0.13548521944815217,"311":0.06606995857807327,"312":-0.11677505534978405,"313":0.12308630829446067,"314":-0.04335377084356051,"315":-0.03604762104632032,"316":-0.19695042669186696,"317":0.09991999286159071,"318":0.05828809132678581,"319":-0.10554327262290428,"320":0.020822844464419163,"321":0.2196024610419236,"322":-0.20106141243975448,"323":-0.17906172176385646,"324":0.028614705960130615,"325":-0.1233398699054038,"326":0.04260083806813114,"327":0.06142133099054105,"328":0.05045439029834398,"329":0.09362838108341413,"330":0.22798839408966226,"331":-0.17018473390303265,"332":-0.07145111745302976,"333":0.1444772476464565,"334":0.03592476548477096,"335":-0.08541641797682373,"336":-0.16417960739886459,"337":-0.15061772146499236,"338":-0.16182540641896773,"339":-0.0019907504838909563,"340":-0.05995530298864016,"341":0.01512257676154522,"342":-0.13499433948290232,"343":0.1438634569529811,"344":-0.13561855631983585,"345":-0.07789465107352966,"346":-0.18422660267938668,"347":-0.07261939640631578,"348":0.0884388491347576,"349":-0.16932957017734043,"350":-0.11603056999657275,"351":-0.09795224364313111,"352":0.08525112189884115,"353":0.019298455501721625,"354":-0.1440481494749099,"355":-0.15117122211195178,"356":-0.18336029943279258,"357":0.04704203760139137,"358":0.16222506402170983,"359":-0.06082550038796563,"360":-0.0688667635539285,"361":0.05599368761246477,"362":0.18726683344025402,"363":0.17635808406221942,"364":0.17565081263673457,"365":-0.14517505968404656,"366":0.25206866389623417,"367":-0.005552287433127451,"368":0.004966155562045756,"369":0.15231123075408848,"370":-0.052248493589828054,"371":0.1387974855170612,"372":0.10966221976300906,"373":-0.1543025120524808,"374":-0.050308684076184045,"375":0.22142281030904595,"376":-0.1334405455918096,"377":0.07907815535162797,"378":0.05296856374822891,"379":-0.15294277342432885,"380":0.07532080600472614,"381":0.18029813132927952,"382":-0.03838508570865441,"383":-0.09658611638062498,"384":-0.058552150129304315,"385":-0.11330345678970914,"386":-0.03500425012194287,"387":0.20031803148326044,"388":0.17042937820503232,"389":0.08594528587841478,"390":0.21122278792776322,"391":-0.16163095736552915,"392":-0.003990896855110128,"393":0.012367194131563177,"394":-0.0056588480762175515,"395":-0.1179625919025057,"396":-0.11236167056852396,"397":-0.09580727600998008,"398":-0.19138800414849846,"399":-0.11918899108091954,"400":0.03734325182456135,"401":-0.12676963181258927,"402":0.24350930115726221,"403":-0.12584426545267532,"404":0.17914716439151948,"405":0.10586662795323865,"406":0.09143638375380514,"407":-0.1079704431464899,"408":0.05510770939274526,"409":-0.10590419012099277,"410":-0.12613487920941616,"411":0.18160207503795597,"412":-0.02371038066818142,"413":0.02812084184170145,"414":-0.1476785849690383,"415":-0.08143183609692438,"416":-0.04378238731620973,"417":0.19940431344386314,"418":0.15081938545524887,"419":-0.20264958681332448,"420":0.15376288988735218,"421":-0.10086887840508768,"422":-0.015139566378967783,"423":-0.10124248652853973,"424":-0.06249052751874077,"425":-0.11137733262641983,"426":0.01595661465591168,"427":0.16556534397626335,"428":0.024622995291329497,"429":0.18222024411413043,"430":-0.18587054148135596,"431":0.17856957857438388,"432":-0.008915911867775643,"433":-0.17932095678956098,"434":0.14111166205839115,"435":0.15950263753622307,"436":-0.04556440284192979,"437":-0.09509022006869691,"438":0.21389693760183462,"439":-0.17899185495806688,"440":0.013678266800377516,"441":-0.0842450163190465,"442":-0.06803778816428743,"443":-0.1518925310526657,"444":-0.08194541988418175,"445":-0.1473151566201066,"446":-0.15554929766547515,"447":-0.041838112178448864,"448":-0.018676407511299738,"449":-0.09617754006227627,"450":0.23329678459452127,"451":0.09468806393304392,"452":-0.1088043955001483,"453":-0.10977273309571939,"454":-0.02514551607879071,"455":-0.14136321384368436,"456":0.025536799573610162,"457":0.07269565244723905,"458":0.144900139926259,"459":0.061073562771753395,"460":0.04070688766208441,"461":-0.0033178608912381082,"462":-0.13256594262565913,"463":0.09518731928888324,"464":-0.12440168016733835,"465":0.2346972158657622,"466":-0.07019649192548609,"467":-0.12342094519538176,"468":-0.12305789845056057,"469":-0.08854125999477125,"470":-0.1867735110757483,"471":0.18776389113127276,"472":0.03456354881988882,"473":0.040829896080107946,"474":-0.014782634908187731,"475":-0.06073991647540584,"476":0.1994152552686524,"477":0.037955188694574725,"478":-0.26456810820679916,"479":0.07938378558340795,"480":-0.12404856030717926,"481":0.13400557524247364,"482":-0.021817571680268013,"483":-0.04583619697738084,"484":0.047898013615660304,"485":0.16084688107832465,"486":0.1712321629319347,"487":-0.11844243775396883,"488":0.015547280545011791,"489":0.05662729536947962,"490":-0.16707939438235403,"491":0.1652586683827795,"492":0.20008838589094693,"493":-0.012713669203204717,"494":-0.03807914585723366,"495":-0.0492234869893168,"496":-0.18261367037611861,"497":-0.17912427103295533,"498":0.18648985404625662,"499":0.17590157592797606,"500":0.18093417891659797,"501":0.0654445921215621,"502":0.027482281205822565,"503":-0.11240364750203391,"504":-0.02988254864399625,"505":0.07481382042221746,"506":-0.014358574631690272,"507":0.05767241268266534,"508":-0.005676199689717976,"509":-0.16024113209534244,"510":0.16398440194248637,"511":0.08998509184446732,"512":0.021453698584569376,"513":-0.180211533069416,"514":0.044806747630263814,"515":-0.11362947875160723,"516":-0.10212637405139302,"517":0.1799161300678064,"518":-0.19060770486264708,"519":0.026743596461564864,"520":-0.013704720597234111,"521":0.0388134014692531,"522":-0.11991336720320368,"523":-0.14292750570158194,"524":-0.07676290470966819,"525":-0.08852412445136408,"526":0.16178237485240388,"527":-0.09020920653859608,"528":0.07774092743882037,"529":-0.012943431104623433,"530":-0.1676998518455584,"531":0.14868760184036828,"532":-0.18295847034719928,"533":0.20210292382812622,"534":-0.11589183475862441,"535":-0.1767982386266855,"536":-0.169759026492507,"537":0.004157753519475963,"538":-0.03877556000524243,"539":-0.04494619452887745,"540":-0.17102070723494187,"541":-0.12494769538096966,"542":0.11477935935113504,"543":-0.02360782313069115,"544":0.19045122509825452,"545":0.004011912124511955,"546":0.23187772887615213,"547":-0.0739800064845241,"548":0.14904327033940334,"549":0.04920058954840926,"550":0.12998411626655848,"551":-0.059756406037792906,"552":-0.029426443393531947,"553":-0.030859092337148078,"554":-0.04767053784348232,"555":0.11494458467388435,"556":0.04573550791900741,"557":-0.1319990404227351,"558":0.01029144697481973,"559":0.19151070255494093,"560":-0.05419479195391507,"561":-0.16462435582902268,"562":-0.14496185101657863,"563":-0.055289840246444226,"564":0.2398663097992003,"565":0.1269426392462627,"566":-0.2154462329206903,"567":-0.12963594944604329,"568":-0.07271838287253404,"569":-0.07618869378469002,"570":0.09069738003815278,"571":0.21001258932803385,"572":0.14092218897575481,"573":-0.09495540494185355,"574":0.09769427085401416,"575":0.03585134512479034,"576":-0.036163079465099564,"577":-0.057357056277270765,"578":0.007891370733253845,"579":0.018849378199191386,"580":0.07540670734203733,"581":0.011590220615617042,"582":-0.06678872363560182,"583":0.04285011576393224,"584":-0.13930963704089552,"585":-0.09248813441480584,"586":0.0020978071647195784,"587":-0.16352330034317697,"588":0.21852904058934583,"589":0.18555977823562528,"590":0.10370736390188817,"591":-0.21438587595601843,"592":0.0600439839165896,"593":0.17549475963350264,"594":-0.05202173099881944,"595":-0.1793050125608878,"596":-0.08162030533826461,"597":0.16732782752938202,"598":-0.06535404445498101,"599":-0.1304587844419488,"600":-0.12463810814360897,"601":-0.14038579092358866,"602":-0.1500510331504197,"603":-0.09402025017970247,"604":0.18388505323802765,"605":-0.0904415323575471,"606":0.045993076254585694,"607":0.1812836982792174,"608":-0.1074276879475471,"609":-0.17212638432633895,"610":-0.2929020029137523,"611":-0.016875065904809902,"612":-0.000579181366066831,"613":0.19432122711477157,"614":0.10814521535749513,"615":0.07787981735121927,"616":0.008563700774942873,"617":0.04428263950119384,"618":0.20678104683434015,"619":0.09458782231613679,"620":0.14934849977273518,"621":-0.12088927987023558,"622":-0.03251540447832616,"623":-0.023386621327031877,"624":-0.020603046621767068,"625":-0.0060277843835259744,"626":-0.14660462792402001,"627":-0.16188782118396797,"628":0.04844405593465763,"629":0.08437087082258951,"630":0.09593314179197747,"631":0.13655096948475978,"632":0.1583689869747323,"633":0.1943204467495324,"634":-0.029863475472214886,"635":0.10022366030118973,"636":0.2036788075821599,"637":0.18074695104477206,"638":0.19247379874379705,"639":0.09600422506520177,"640":-0.03300508709382681,"641":0.0626158099068325,"642":0.1345931513083306,"643":0.044965025290596136,"644":0.08481883203198538,"645":-0.16414264108319854,"646":-0.09398124858463237,"647":-0.14958257068377037,"648":-0.03558941465788859,"649":-0.015518694678734932,"650":-0.15108615791175034,"651":-0.11539411730026036,"652":0.1211301667291727,"653":-0.21017540944360963,"654":0.00035138144661158967,"655":-0.16805561710880593,"656":0.11127185333855752,"657":-0.1849410674710705,"658":0.03589274411055303,"659":0.18479230408180666,"660":0.1431812161545597,"661":0.1551983378336558,"662":0.16847641476725883,"663":-0.10316574879710878,"664":-0.0503193860969982,"665":-0.1775780016965137,"666":0.036147684019436084,"667":0.06250799223253058,"668":0.18334591009079934,"669":-0.07250156987085123,"670":0.10779567020251721,"671":-0.07676437844396648,"672":0.17777749076684732,"673":0.1151022781460416,"674":-0.20558082329806396,"675":-0.03542521829770714,"676":-0.04178488362594445,"677":0.06271569520008095,"678":0.09973312450854709,"679":-0.18070337554769136,"680":-0.05295940048027181,"681":0.11208688186241288,"682":-0.03846366036776733,"683":-0.05244020815700349,"684":0.13729090757699935,"685":-0.004399003076640962,"686":-0.1281222785904579,"687":-0.1856840708074164,"688":0.06309131628909825,"689":0.020975927057438507,"690":-0.05669433703687196,"691":0.1550242862323394,"692":-0.16152887828041387,"693":0.0988394680430905,"694":-0.17725249153074238,"695":0.13877918471476236,"696":0.16172637287824093,"697":0.01926470531459351,"698":0.04081564140838691,"699":-0.1552499632835655,"700":0.03623057024972741,"701":-0.05752606111721915,"702":0.17750308216386973,"703":0.12173548058961688,"704":0.025583251545821226,"705":-0.1514284977512365,"706":-0.16391626619767374,"707":0.16539968369013333,"708":-0.19137823277817942,"709":-0.006629153283058472,"710":-0.08959750204883092,"711":-0.03393794012551539,"712":0.0062909030000318465,"713":0.1716462179788909,"714":0.0909576855018104,"715":0.19847693590952237,"716":-0.04947449328564762,"717":-0.16688874817896263,"718":-0.1252863280378589,"719":-0.14768593600600124,"720":0.07674430656415825,"721":0.02397280582836947,"722":0.02650697885121939,"723":-0.018072190158671328,"724":-0.06755144349504447,"725":-0.08443151246189609,"726":-0.0914179342148151,"727":-0.012885191084032712,"728":-0.13270461300533293,"729":0.0835652642385674,"730":0.08870341893163869,"731":-0.0709607851885253,"732":0.12759374475065788,"733":0.16135065124133005,"734":-0.07583530339988143,"735":-0.04862905575727571,"736":0.1857061457614884,"737":-0.08062841066522476,"738":-0.013958977200585913,"739":0.18975051221624406,"740":-0.1838245914968203,"741":-0.1059551824748356,"742":-0.1032925754030984,"743":0.09743158927361954,"744":0.23544707566131076,"745":-0.14742348074499764,"746":0.025339479444461636,"747":0.08781701169492608,"748":0.16310462113436341,"749":-0.008057128218211322,"750":0.11427215500609596,"751":0.12780601828191387,"752":-0.19130306166769812,"753":0.08666641314176712,"754":-0.14984105880595883,"755":0.1366515334430169,"756":-0.08905265040956235,"757":-0.026335302100613182,"758":-0.1781756783943764,"759":0.13587710789588184,"760":-0.1679017504134487,"761":-0.053605712608969194,"762":0.2082325191748881,"763":0.1589253012426183,"764":-0.04392656087303688,"765":-0.16756418568640152,"766":-0.16270267497603835,"767":0.0585288768199239,"768":0.07448369433375968,"769":-0.10052009594825904,"770":-0.17816831566875657,"771":0.11035476469973288,"772":0.028464711419329318,"773":-0.06599186049020579,"774":-0.09517701925176715,"775":0.03805479579120809,"776":0.00859039207981543,"777":-0.15283290116119191,"778":0.05863158451325954,"779":-0.08291904684420101,"780":-0.16999040380565258,"781":0.12897977415776762,"782":-0.11919294254149265,"783":0.05956127562822395,"784":0.09364726279724368,"785":0.021502334057870148,"786":0.1602770771484494,"787":-0.024419608859899234,"788":0.02821220732859438,"789":-0.14604425628739998,"790":-0.1030819764607781,"791":-0.07485516850355625,"792":0.16689218993645338,"793":-0.1337376436999479,"794":0.12726913471727844,"795":0.1992483189314881,"796":-0.06529200131862024,"797":0.022192102982424727,"798":-0.016901908981164924,"799":0.0693535841351241,"800":0.005939631231416342,"801":0.05962860974049631,"802":0.10516978563907779,"803":-0.023407903083123224,"804":-0.014623162351119857,"805":-0.08694491083337332,"806":-0.1366499515506207,"807":0.1387986986302225,"808":-0.17801961942784286,"809":-0.035207345566906745,"810":0.13972520372012717,"811":0.10001855574963421,"812":-0.18589521688922045,"813":0.0683212987804048,"814":0.14848190955371773,"815":0.08241548104720547,"816":-0.17337469188848578,"817":0.14919700424857382,"818":0.022131513117276926,"819":-0.17844976184219344,"820":-0.06437697531788923,"821":-0.16342793534630806,"822":-0.14478934546084365,"823":0.11242800250915805,"824":-0.14531440076844632,"825":-0.1249327590040003,"826":-0.1935895836306686,"827":0.06714181872358342,"828":0.04783841936670403,"829":0.07329004960619878,"830":-0.030530182196240374,"831":0.0778818034517948,"832":-0.0103780341513684,"833":0.00547777277942761,"834":0.2201228526987049,"835":0.15146621887584652,"836":0.13029601989342332,"837":0.145177254050992,"838":-0.09898517413370679,"839":0.1167395897711333,"840":-0.05405288543300246,"841":-0.12369189312362872,"842":-0.14615363625284855,"843":-0.030506753782358068,"844":-0.1864504766542863,"845":-0.06521866532670169,"846":0.08078363176759892,"847":0.15365741239263336,"848":-0.05641282000613086,"849":0.19279805132171807,"850":0.17598980078247672,"851":-0.139500226963636,"852":-0.07607606609795192,"853":-0.17709461701782483,"854":-0.12724215774257827,"855":0.15542216724684588,"856":-0.0654825708260424,"857":-0.15314601196681,"858":-0.08757791930798897,"859":0.042617414881324686,"860":0.02287610743586028,"861":-0.14025812928502707,"862":0.14620682015548211,"863":0.1085280316556806,"864":0.04179951097004691,"865":0.1574624974830371,"866":-0.16331116592469613,"867":-0.08263642672050701,"868":-0.07303488564196843,"869":0.012983755567274565,"870":0.01502403297621674,"871":-0.006844376840892461,"872":-0.14036512046257496,"873":-0.21728479738302994,"874":0.20492672332614173,"875":0.18540079349184688,"876":-0.05505431015834955,"877":-0.1473276156530215,"878":0.14214751187685368,"879":-0.06131433562730471,"880":0.16901240979713772,"881":-0.12276682785109172,"882":0.08359104468846998,"883":-0.014948523496311464,"884":-0.03791878470055193,"885":-0.048495972399548115,"886":-0.07948289153431778,"887":-0.027852762444297484,"888":0.06525333596659007,"889":0.16270065443003506,"890":0.09851166147605285,"891":0.1187090799514333,"892":0.053956490687835416,"893":-0.12458109568374222,"894":-0.13461113363908195,"895":-0.10174352801875153,"896":-0.05563097382954037,"897":0.18710315611654146,"898":-0.21380381788814998,"899":0.0976170505998791,"900":0.06808740849711205,"901":-0.13996807375486864,"902":-0.08075473185754076,"903":0.08425659353539065,"904":-0.09103488868001355,"905":0.11937698397950473,"906":-0.15535799181148324,"907":0.019822948102106278,"908":0.1439176314516123,"909":0.11175829860635866,"910":-0.011254480621365116,"911":0.052914608865616296,"912":0.030185458093673203,"913":-0.1393009979993128,"914":-0.11788239199562742,"915":0.052223067866975774,"916":0.06168273101674701,"917":0.15014569573066092,"918":0.10645301672750494,"919":-0.000554667390601271,"920":-0.09289827936042638,"921":0.1306054097804964,"922":0.05617802331318834,"923":-0.046543122308151615,"924":-0.015186450644496814,"925":-0.0931595584076923,"926":-0.18967105255280992,"927":0.16530626140529037,"928":-0.12039916171213898,"929":-0.013106062559474168,"930":-0.03332715267942835,"931":0.08395242193704676,"932":-0.11019625406701823,"933":-0.052430531056234075,"934":0.06363614942253897,"935":-0.11686452253432159,"936":0.050288255153610587,"937":-0.1972751895632144,"938":-0.17037979586265947,"939":0.2141997927935129,"940":-0.0035179696804546238,"941":0.013180649672796979,"942":-0.11069908174562397,"943":0.208484082022338,"944":-0.004750922887485258,"945":-0.11120303842705018,"946":0.1601081486537679,"947":0.049540208557242726,"948":0.180414316448285,"949":0.09485016574717833,"950":-0.15894929580486386,"951":-0.029103438388165134,"952":-0.13528168547384306,"953":-0.14158810771115266,"954":0.2098930031923841,"955":0.020555004318819948,"956":-0.22182606113427444,"957":0.19758575717016552,"958":0.03531393184970987,"959":0.14000943114624304,"960":0.14518055101241945,"961":0.09360375891443225,"962":-0.03711417880160807,"963":0.01861685407757388,"964":-0.05280780437437964,"965":-0.09945126455956659,"966":-0.2192508839430022,"967":-0.009781463687227637,"968":0.05490125875391264,"969":-0.05650953224454026,"970":-0.10796352810205413,"971":0.0671030046066466,"972":-0.13089429389653254,"973":-0.1562260001687483,"974":0.09937381353382124,"975":0.054623089874772095,"976":-0.09222662309709796,"977":0.07121354114950687,"978":-0.2032090153000033,"979":-0.19479237042373457,"980":-0.0029319848706599264,"981":-0.06183963394410808,"982":-0.18371378268687838,"983":-0.14374759527829664,"984":-0.08358370521123727,"985":0.16790366041473387,"986":-0.031780827750827814,"987":-0.04889538566503053,"988":0.1629099773711414,"989":0.029895363865760135,"990":0.07831933852815712,"991":0.056102716381478325,"992":-0.051268374691320305,"993":-0.014412138142479167,"994":-0.16942048525212655,"995":0.005216599542476412,"996":0.17011703570439576,"997":-0.0953692399672476,"998":-0.15144068824289378,"999":0.14230690455405734,"1000":0.15094061368486258,"1001":0.04562929931504193,"1002":-0.03322975798741439,"1003":0.1400539728687088,"1004":0.03670413358910954,"1005":0.15469503658322634,"1006":-0.15526687760613817,"1007":0.06855978527204402,"1008":-0.15606560808091832,"1009":-0.17468688622597486,"1010":0.12897777401952698,"1011":0.0707020088771488,"1012":0.0912447008086817,"1013":-0.03936230622244665,"1014":0.04811088641238616,"1015":0.11207247037463136,"1016":-0.16409852774906783,"1017":0.12633274808895847,"1018":0.03855496299939224,"1019":-0.21786277245348498,"1020":-0.01275985452139681,"1021":-0.0000868674579585665,"1022":0.08443158116466648,"1023":-0.009881666192440304,"1024":0.02378897923263857,"1025":0.05927436626942635,"1026":-0.10854990590704808,"1027":-0.008565657054216108,"1028":0.03551336944465344,"1029":-0.0024420769002484522,"1030":-0.04876866645362521,"1031":-0.11171572625172839,"1032":-0.07586964291692294,"1033":0.16932082239493315,"1034":0.12813057650815643,"1035":-0.05577570437789508,"1036":-0.10977820033503756,"1037":-0.16254339291326167,"1038":0.08761725322980914,"1039":0.21595406761055036,"1040":0.02183962207244789,"1041":0.15469962543458934,"1042":-0.006871987502353128,"1043":-0.1710104647918538,"1044":0.08927773419015204,"1045":0.17323100810396694,"1046":-0.1102821422252023,"1047":0.24741595393240778,"1048":0.04668285789467952,"1049":-0.15046715640532926,"1050":0.06341649182385926,"1051":-0.006153876602969004,"1052":-0.0688227270441698,"1053":0.004500337530661381,"1054":-0.06143851485333798,"1055":0.17920588948755567,"1056":-0.01693931108900539,"1057":-0.16046529626742903,"1058":0.0516221544864631,"1059":-0.14499637115314487,"1060":-0.09616480162066132,"1061":-0.05743345396937915,"1062":0.015382805300224841,"1063":-0.07471888530399752,"1064":-0.0351598848741831,"1065":0.17809060856752618,"1066":0.14004263047175056,"1067":0.18392438949741194,"1068":-0.12775083550457525,"1069":0.15425283444039678,"1070":-0.1435502176876535,"1071":0.22555222406874245,"1072":0.0739947613024458,"1073":-0.12729993923784388,"1074":0.14013613637998457,"1075":0.13737818871310933,"1076":0.012737946720832352,"1077":-0.17247319267520206,"1078":-0.229982618093464,"1079":-0.06444336240181718,"1080":-0.05692415910855807,"1081":-0.055144654373234375,"1082":0.13818787401896523,"1083":0.028304636130235088,"1084":0.16337132071231192,"1085":0.016910089605753926,"1086":0.061287268558306976,"1087":0.10416659563666505,"1088":0.10629380786079996,"1089":0.07549315898500218,"1090":-0.014396185695952204,"1091":-0.14219732062099838,"1092":-0.17149103031925841,"1093":-0.1484492987948734,"1094":-0.030995070755266217,"1095":0.15781902883135998,"1096":-0.10146231235338202,"1097":-0.0070336662696711,"1098":0.20561058709822672,"1099":-0.07891651841138211,"1100":-0.20495032309558353,"1101":-0.04793682593929684,"1102":-0.011841141340161131,"1103":-0.007033397359237561,"1104":-0.16565408524620162,"1105":0.009326787640888541,"1106":0.14060605771688262,"1107":-0.07773600404995006,"1108":-0.023448871729520836,"1109":0.036042953471184414,"1110":0.03175530954941865,"1111":0.11041783483973837,"1112":-0.09170636066962004,"1113":0.11192240101064567,"1114":0.058503190393389526,"1115":-0.10631884637057101,"1116":-0.010580998194309438,"1117":-0.10991712132645168,"1118":-0.013189137170641347,"1119":-0.019952929741134603,"1120":0.014492111535648264,"1121":0.011263564584967245,"1122":-0.0823815898654048,"1123":0.09272191849526705,"1124":0.11114472255001469,"1125":0.12231348503416758,"1126":0.0078305524581434,"1127":0.219697498129252,"1128":0.017266437344768387,"1129":0.09145569495959284,"1130":0.021255753054709916,"1131":-0.14481897627676213,"1132":-0.14548709862260348,"1133":-0.15759967876173925,"1134":-0.06183173214510162,"1135":0.03559825449790017,"1136":-0.1353393711337903,"1137":0.12808393335628607,"1138":0.07044040014833985,"1139":0.11485049871050101,"1140":0.12928628943090473,"1141":0.057929548731031205,"1142":-0.20738304929553883,"1143":0.08108849272336473,"1144":-0.13092564591861028,"1145":-0.0356732094242529,"1146":0.1511331613583319,"1147":0.04209262532198923,"1148":0.023884594511503255,"1149":0.2021948920410233,"1150":0.11318414146633161,"1151":-0.047744227187936424,"1152":-0.03750318715785495,"1153":0.040445136252945754,"1154":-0.16070170108311543,"1155":0.09308597528511686,"1156":-0.09482071114745226,"1157":-0.00930843381736778,"1158":-0.02528799155802041,"1159":-0.09149357803868487,"1160":0.06868183318927056,"1161":-0.07218798418492492,"1162":-0.10239952311124667,"1163":-0.15326988109095352,"1164":-0.12822883890278822,"1165":0.10644894990941949,"1166":-0.12206785426911569,"1167":0.2584371609063062,"1168":0.012443111697489302,"1169":-0.17858548970047644,"1170":-0.06783877418387249,"1171":-0.01089974764983405,"1172":-0.08560213696835973,"1173":-0.09654749865064594,"1174":-0.025625197751549995,"1175":0.16045651675023948}},"2":{"bias":-0.09827338263318988,"weights":{"0":-0.210758878050048,"1":-0.045178281512967114,"2":-0.052099271857785706,"3":0.1392967483163221,"4":0.13200206651523494,"5":-0.1925664573078519,"6":0.17200147003522032,"7":0.1329650698809087,"8":-0.10403341880436279,"9":0.11493144092052299,"10":-0.12318858653994035,"11":0.1659432253867373,"12":-0.04096460493795826,"13":0.17979419131504593,"14":0.04594212555328178,"15":0.15356453487201513,"16":-0.009794753289405246,"17":-0.18468819027498148,"18":0.2042071610877444,"19":0.032191442155269125,"20":-0.07378965106029658,"21":-0.06666593728804023,"22":0.17560774046525343,"23":-0.11762594413424902,"24":0.09654449808710527,"25":-0.11008435758209724,"26":-0.04817235289520992,"27":0.1520926360161891,"28":0.14706232773006314,"29":-0.0017323274789045695,"30":-0.048527836908822085,"31":0.08480538881638382,"32":0.10613199149761961,"33":0.040320004986762116,"34":0.11161341861991521,"35":-0.10436874232438205,"36":0.10386796133005431,"37":0.037917304703289356,"38":-0.012742900926507088,"39":-0.08654024273087958,"40":0.15569710361517283,"41":-0.09404836205873425,"42":-0.1423803850209322,"43":-0.1993496457176014,"44":-0.13051431112138226,"45":0.16263253049833237,"46":-0.025286865202193216,"47":0.06082805999369377,"48":0.19934487296051664,"49":0.09215683488637906,"50":0.0303894277181111,"51":-0.11703336107971778,"52":0.15968337218325881,"53":-0.08182690411036134,"54":0.13499643027450653,"55":-0.009396136352041742,"56":-0.08943747893476447,"57":-0.10112976378942785,"58":0.008691248418780119,"59":-0.062160533613050156,"60":-0.12676412595437672,"61":0.09443180604615023,"62":0.015475441594018924,"63":-0.05110722111423438,"64":0.04943052479033297,"65":-0.01828618646560022,"66":-0.05145840148131316,"67":-0.09310321289604044,"68":-0.14285436765571946,"69":-0.18061685328031082,"70":-0.10029586449657837,"71":-0.14603598341350021,"72":-0.0403564467854992,"73":-0.02480285384925075,"74":0.14324776498690375,"75":0.1690626699304521,"76":0.1269824682147749,"77":0.005319654275923974,"78":-0.19428840709831183,"79":-0.16593968353799757,"80":-0.17060632531918263,"81":-0.164856044007631,"82":0.15300176808363575,"83":0.05645730893680448,"84":0.07385836804366486,"85":-0.07351544630468711,"86":0.17266616502134474,"87":0.16689846430633962,"88":0.002419838050032284,"89":0.16363999571695298,"90":-0.1665478639840596,"91":0.023852552621049867,"92":-0.17843184162066725,"93":0.1120275883241472,"94":-0.14379971316664744,"95":-0.016671368021014054,"96":0.10421761836970658,"97":-0.04481028440248108,"98":0.007169593528875196,"99":0.12443778253398831,"100":-0.016040954554447862,"101":-0.15906482082249293,"102":0.1662214308006722,"103":-0.06672252777838333,"104":-0.0750313987743376,"105":-0.08114339539275367,"106":-0.02369857976864589,"107":0.09864024084705515,"108":-0.05081368479911931,"109":-0.022407722594265347,"110":-0.16914354828108086,"111":0.004927264086515742,"112":-0.13387648400561844,"113":-0.19330042850538767,"114":0.11154474564280946,"115":0.19722974269623403,"116":-0.17726944520591315,"117":0.14166420178575018,"118":0.16230134100554042,"119":-0.049662597281823956,"120":-0.15979453106390715,"121":0.09732100931065893,"122":-0.09281148701270554,"123":-0.021544134535620204,"124":-0.021874197619170872,"125":0.14641110635745033,"126":-0.12959054159342662,"127":-0.000040235191238738004,"128":-0.03292475903104198,"129":-0.07330798441508407,"130":-0.10404823878769479,"131":0.17790184910066278,"132":0.08467633689361755,"133":-0.19823696426016604,"134":-0.03637752566071988,"135":0.041782216560365265,"136":-0.1919564044826524,"137":0.09480188196013606,"138":0.011878461033607624,"139":-0.19436760705652004,"140":0.0556785474188668,"141":-0.05166485703151416,"142":0.15902185378871214,"143":0.17286398784989873,"144":-0.11666895918531921,"145":-0.12994529726456183,"146":-0.10050421639523009,"147":0.18414643822897503,"148":-0.022473068882804825,"149":-0.059183424082819715,"150":0.17071251657726655,"151":-0.06407080376674121,"152":-0.11560511642060828,"153":-0.08441044683616301,"154":-0.0969955334840113,"155":0.08580969430596772,"156":0.1671864240301384,"157":0.10943833591388691,"158":0.09183964197816832,"159":0.20517451249612018,"160":0.18577160442620402,"161":-0.021639489324363874,"162":-0.12007297265814243,"163":-0.09810172497583104,"164":-0.13050641871210425,"165":-0.09889902479977072,"166":-0.04856528071576041,"167":0.11088752608426586,"168":0.0993865886677408,"169":-0.18979448369027171,"170":-0.18325411120130017,"171":0.0841102222859315,"172":0.11204691316106288,"173":0.008338046289938884,"174":-0.18922342830524075,"175":-0.09738682234204861,"176":0.027033881740999705,"177":-0.17086688210722656,"178":0.06894422762070784,"179":-0.07125038446131111,"180":-0.00982822868086385,"181":0.11301049795324873,"182":0.14883861221039751,"183":0.11058387275742512,"184":0.10768482824729456,"185":0.018228965856011393,"186":-0.13345258309625826,"187":-0.054098631116297494,"188":0.1613664999898646,"189":-0.18855308071431798,"190":0.12071670835356496,"191":0.18435378241902073,"192":-0.019123262388151065,"193":0.060084403309233,"194":0.11455719923272613,"195":-0.1496136473814453,"196":0.0664983320425378,"197":-0.0034249399724487987,"198":0.020713175746420034,"199":-0.19436659938001027,"200":-0.1674114809533121,"201":0.039135543266653805,"202":-0.19675095970548923,"203":-0.13834598381068638,"204":0.18572837736238196,"205":0.14528165635207174,"206":0.1211579882008956,"207":0.11026527839259281,"208":0.14211520972329997,"209":0.12891549422765272,"210":-0.027467376074933086,"211":-0.13191202158283724,"212":0.15292417052859666,"213":-0.09405101732332072,"214":-0.17033099839481844,"215":-0.030638808522533353,"216":-0.03188399610401738,"217":0.09749649639833975,"218":-0.083798052832875,"219":0.21793768101920996,"220":0.06271532270893006,"221":0.12485113063628493,"222":0.1823456866484316,"223":0.013241096284826696,"224":0.09020757036570841,"225":-0.01320810418642197,"226":0.048034484316445324,"227":0.11519027678128249,"228":-0.0358842027815818,"229":-0.2065183212915353,"230":-0.14109588440963938,"231":-0.008865614145916733,"232":-0.16998244185414335,"233":0.10460712847419439,"234":0.07412421720934949,"235":0.00039208710890634575,"236":-0.05099210851384946,"237":0.02832901159862776,"238":0.08036684814285767,"239":-0.05457324605175877,"240":0.18361767090905654,"241":0.07751647632078366,"242":0.15943130085091725,"243":0.11989198265529104,"244":0.09201429375250547,"245":0.17342707228022708,"246":0.17351650450881043,"247":-0.12086343265978648,"248":-0.18121419438393413,"249":-0.032153055110263666,"250":-0.035755004940299304,"251":-0.149571886591206,"252":0.062338546305371625,"253":0.11679564397036589,"254":0.07534957785730001,"255":0.18790835709588702,"256":-0.08973514239929943,"257":0.15874150941014872,"258":0.017218420950156244,"259":0.016135433953422606,"260":0.1794628067460298,"261":-0.0747023553529939,"262":0.0523019252961868,"263":0.11233853786581395,"264":0.09106022959958332,"265":-0.08035618913263162,"266":0.1514626256146288,"267":0.08660630479806505,"268":-0.033174827042862315,"269":0.06184521447675857,"270":0.041804253696524504,"271":0.13166832043089452,"272":0.04925712696891492,"273":0.12306780404042846,"274":-0.05556153829003246,"275":0.17089415821588527,"276":-0.15430806512842832,"277":-0.008893717734263104,"278":0.06237270186614945,"279":0.11607387704237955,"280":0.12399084859368174,"281":-0.021588897566668448,"282":0.05382847365167252,"283":0.05798065703632948,"284":-0.01698778423178562,"285":0.13205356682430971,"286":0.1097310032479175,"287":-0.21340133458725918,"288":-0.07641748481434592,"289":0.054316845578198145,"290":-0.1388002183960754,"291":-0.13214922362950213,"292":0.20306112364190618,"293":-0.015051595886067578,"294":-0.07847010343015118,"295":-0.09967085447435518,"296":-0.13345589089745755,"297":0.1842700336920316,"298":0.01953126218007544,"299":-0.1058293482566885,"300":-0.053015566650754485,"301":-0.031781191062617266,"302":0.15325171918569297,"303":0.11769568851801296,"304":0.018102091464954777,"305":0.02675744231318482,"306":0.11667388793818603,"307":0.18765691613239455,"308":0.16072545913009836,"309":0.12614033600558244,"310":-0.06521394078975389,"311":-0.03518637432719813,"312":-0.17049013309856625,"313":0.14691867334977404,"314":0.04272111781372351,"315":0.20259676055515508,"316":0.023968488727377522,"317":0.03971564100121725,"318":-0.10413443279346754,"319":-0.14002503018291004,"320":0.13179116736758023,"321":0.14657211991309554,"322":-0.04017679735187872,"323":-0.14369348989812084,"324":-0.14157557592415293,"325":0.010342027710909895,"326":-0.07432400413840283,"327":0.19594783427221496,"328":-0.02602607107311725,"329":0.013426649339176082,"330":-0.1911839982862582,"331":0.0050906794981868736,"332":-0.07615713802938406,"333":0.02678331228667052,"334":-0.1651803305854703,"335":-0.11056447875113554,"336":0.1345894312620497,"337":-0.14833790543988157,"338":-0.10677408931998701,"339":-0.1448494397436469,"340":0.1402703452113931,"341":-0.0995287887097216,"342":-0.09469820806180772,"343":0.08129773945765655,"344":-0.06298468092823355,"345":0.19566726059958905,"346":0.19871864700371566,"347":-0.06369985541789917,"348":-0.1733676634005627,"349":0.06687778556916626,"350":0.08868690037447022,"351":0.11872895746438797,"352":-0.11958529645064674,"353":-0.1296951348138489,"354":0.056172387817844976,"355":-0.1985854303628308,"356":0.07993401650931,"357":-0.07166518421071542,"358":0.08512503958321974,"359":-0.08487498191318761,"360":0.0314908990552177,"361":0.03471520039895528,"362":0.06884969600814848,"363":-0.15308562623138483,"364":-0.05574152945850081,"365":-0.10326278928531095,"366":0.00511666167611122,"367":0.11391899434781781,"368":0.11119546052714462,"369":0.008187634755135674,"370":-0.12630421674156103,"371":-0.02290379711309021,"372":-0.1826955600174583,"373":-0.05956196918097317,"374":-0.11633058403098884,"375":-0.1116961038304038,"376":0.09251968120030139,"377":0.09066799522843363,"378":-0.16572422572248613,"379":0.010959612336884335,"380":-0.1393253935767734,"381":0.17353061305297704,"382":0.05921292276059465,"383":0.10549757755886945,"384":-0.11861653813893047,"385":0.09453428196215256,"386":-0.1048727271303337,"387":0.02730350744760398,"388":0.022121019531239954,"389":-0.08201612801973905,"390":-0.04949324253730098,"391":-0.2230531594168131,"392":0.11847157785539017,"393":-0.09799480556615332,"394":-0.09494862139711557,"395":-0.08848723316540667,"396":0.1327537684657163,"397":0.12327035303155574,"398":0.024751227176762126,"399":-0.01837596431804716,"400":0.09972017734026017,"401":-0.16843804817500302,"402":-0.07635199403341411,"403":-0.05291406585662572,"404":-0.14005200093582595,"405":-0.02475656833349008,"406":-0.18247876095718052,"407":0.03402665464069347,"408":0.09517009500698465,"409":0.09632297086846005,"410":-0.1140163158747266,"411":-0.11342393562939526,"412":0.14295666725586015,"413":0.06131698438542818,"414":0.16560558865686759,"415":0.10469764405444948,"416":0.17183005372646512,"417":0.03615324567910766,"418":-0.013553018527651488,"419":0.09500624037861638,"420":-0.029162609226648536,"421":-0.14769961314243557,"422":-0.10356337921465503,"423":-0.03918586979241425,"424":0.06956481125343997,"425":-0.12727768671676773,"426":0.15663727090199725,"427":-0.13191817999251637,"428":-0.1782774378625058,"429":0.02332861661209793,"430":0.1272880202121334,"431":-0.06750909609285517,"432":0.028827275046605264,"433":-0.020009853914355776,"434":0.07541730083111782,"435":-0.1705583622321496,"436":0.14274569041563812,"437":0.058952473243771016,"438":0.02142199680590432,"439":0.0260306401851203,"440":-0.003598491597775887,"441":-0.11901091292748157,"442":0.07659550821742045,"443":0.0936782248441405,"444":-0.07702982303789985,"445":0.12372672595939535,"446":-0.0887319233487399,"447":-0.08290697554605793,"448":0.16646207824795936,"449":-0.12290166353319179,"450":-0.0728414036018713,"451":-0.03326887571304272,"452":-0.09951200222341734,"453":-0.09183727701454157,"454":0.11670545277064145,"455":-0.19037103866291538,"456":0.024071631523849363,"457":0.048118226337883416,"458":-0.11252772269692599,"459":0.0035380702105046037,"460":0.05543134719198173,"461":0.14131718008689992,"462":-0.1544458355781846,"463":0.049422862799613075,"464":0.025950235083362985,"465":0.10699452254356344,"466":-0.061119701018310046,"467":0.03867795736812326,"468":0.044510576531883964,"469":-0.10827845680509048,"470":-0.12964221472147117,"471":-0.061239646564981695,"472":-0.10408393774123534,"473":0.10543501844080075,"474":0.04729492379960867,"475":0.18917055339481462,"476":-0.035907381853776094,"477":-0.1028991443258662,"478":-0.23912912550179236,"479":-0.2191180100435056,"480":-0.009945598038565448,"481":0.15626845632956293,"482":-0.03770343121084656,"483":0.18613136975920722,"484":0.07536455667764183,"485":-0.17533900458735469,"486":0.20138909222583692,"487":-0.03277218509923301,"488":-0.1380411864148595,"489":0.03265779591277824,"490":-0.11203054252021483,"491":0.004661775361552276,"492":0.16027779444868262,"493":0.20111698695505667,"494":0.16168064063961213,"495":0.07225358478929117,"496":0.019120060025886662,"497":-0.13231390352274264,"498":-0.08452385691530163,"499":0.028003797457741196,"500":-0.13209835639141182,"501":-0.10100894389198278,"502":-0.009320413940654271,"503":-0.13058748414958707,"504":-0.04459779120150435,"505":0.09992138513877073,"506":-0.1755069441124453,"507":-0.06574761954581076,"508":-0.09733917188213755,"509":-0.025212611079368178,"510":0.11144053964188039,"511":-0.19663278954403887,"512":0.18443598894110477,"513":0.0022488286745592037,"514":0.07563124493679747,"515":-0.19199188002828085,"516":0.10572223983610256,"517":-0.11488102452314522,"518":-0.02503833740215944,"519":-0.2065391798388915,"520":0.045665582911223475,"521":-0.08208473374104493,"522":0.17726071542674343,"523":-0.1672398276340623,"524":0.06014625944151275,"525":0.07143603621680492,"526":0.04020055771646095,"527":-0.0028501952930833235,"528":-0.13969404852043993,"529":-0.19003901656797453,"530":0.025902468192832442,"531":-0.0887213714870556,"532":0.18723046047915526,"533":0.05446249200459156,"534":0.1985895519473133,"535":0.059541386003014035,"536":-0.1417517556138921,"537":-0.01934684175213635,"538":-0.12893205577059905,"539":0.20490211943856765,"540":-0.09365333022759376,"541":0.11452644208314652,"542":-0.14554497381600578,"543":0.06409635693145241,"544":-0.0169161688443559,"545":-0.059651608040016534,"546":0.06493687290878634,"547":-0.005431712655911573,"548":0.07827126512030785,"549":-0.09068659006133713,"550":-0.15371061284987328,"551":-0.18901530568213865,"552":-0.17860070820568705,"553":-0.037388691381620175,"554":0.0776860116039089,"555":0.1391827274340055,"556":-0.11098535957021909,"557":-0.02000813408290997,"558":0.03218289332928071,"559":-0.07961508328990011,"560":-0.04315802307068787,"561":-0.16842119167286393,"562":-0.16194026603780853,"563":0.1347075393928274,"564":0.009164429880616238,"565":0.057785758259358985,"566":-0.16235865834263014,"567":-0.11631946095035807,"568":0.043732802485616895,"569":-0.039742654126894345,"570":0.1482477489353823,"571":-0.14241625183740494,"572":-0.17558970436826565,"573":0.06241660740906332,"574":0.03539206149954322,"575":-0.19165616324005974,"576":0.004389564007422005,"577":-0.1278981806334863,"578":0.16510833374579753,"579":0.09946055985346343,"580":-0.0070884364305238215,"581":-0.12070683350930432,"582":-0.18254649523719535,"583":0.07981474793952345,"584":0.16632511917281928,"585":-0.05008475066527418,"586":0.15178912369462078,"587":0.020302401379806635,"588":-0.05140006063898648,"589":-0.1302765050291306,"590":0.023306715227390945,"591":0.054502382554156625,"592":-0.0007609878345650722,"593":-0.18152481876902798,"594":0.19079035354938578,"595":-0.0715512338133152,"596":-0.0920839685668187,"597":-0.006068121012715737,"598":-0.11095863801367675,"599":-0.008199701783622037,"600":0.010760837177497365,"601":0.15372092725890207,"602":0.19384403513885398,"603":-0.10703097592167726,"604":0.0857727660978921,"605":0.10151618895757668,"606":-0.06478046619963194,"607":0.04312171066250645,"608":-0.08030276246227065,"609":0.09083918414301467,"610":0.054803279751057775,"611":-0.07790562330015766,"612":-0.04752846616992195,"613":0.15535501628865744,"614":-0.15446477883534582,"615":-0.1147171048319084,"616":0.027223951437793433,"617":0.10376905297996963,"618":0.10490508892841423,"619":-0.07547948484892025,"620":-0.1511404785815381,"621":0.08271248845067233,"622":-0.1261680161656994,"623":-0.18956713591345492,"624":0.025441013607602838,"625":0.03582392751588973,"626":-0.05040450334023098,"627":-0.20037034973500906,"628":0.02182009124078841,"629":0.14048165471005414,"630":-0.03228678883734284,"631":-0.07129102349654858,"632":-0.07833408802331146,"633":-0.1812923083035226,"634":-0.13584381924203712,"635":-0.18908311715992832,"636":-0.044875988487314125,"637":0.1137578112119108,"638":0.03113183898039408,"639":0.18149205834803397,"640":0.0961493276434321,"641":0.1974862474619242,"642":0.03238579708284458,"643":-0.20986950659545842,"644":-0.17571111545356544,"645":0.07444113618868134,"646":0.07852082760685086,"647":-0.17106832199154565,"648":-0.06971396304319345,"649":0.11560044463374103,"650":-0.16400333955056126,"651":-0.059271933823837025,"652":0.00940158148587335,"653":-0.19557685065777142,"654":-0.17158011708806647,"655":-0.09798716945534121,"656":-0.1290536754510454,"657":-0.06668719470573124,"658":0.06656252071999966,"659":-0.13222955041521603,"660":0.04305996930230086,"661":-0.05183287827069384,"662":-0.06639424353360171,"663":0.06867563991429088,"664":0.17899867501883268,"665":-0.04108901074946886,"666":0.12836233060669694,"667":0.03344614662224152,"668":0.10549489550706732,"669":0.18998970409178706,"670":-0.19504309404066647,"671":0.1328912911971298,"672":0.18288352405607622,"673":-0.12510409933781635,"674":-0.03166127409271365,"675":-0.04202778513995501,"676":0.13902831644487196,"677":-0.16480977635700586,"678":-0.18418961215203947,"679":0.08977546507154621,"680":-0.028249787411769284,"681":-0.12367911784769173,"682":0.16324437245137757,"683":-0.07417290898897509,"684":-0.12483002669075254,"685":0.016760926131753725,"686":-0.19240925152882993,"687":0.09852139189006862,"688":-0.17015772796251083,"689":0.003606550846377299,"690":0.17423384178093823,"691":-0.19692180530854098,"692":-0.11238572273736736,"693":0.18172612569636612,"694":0.1358487736226466,"695":0.14895004545864246,"696":-0.1635992904632536,"697":0.14397972291630284,"698":0.10378293485256108,"699":-0.12943849491872741,"700":0.1636169730143694,"701":0.13402468148490476,"702":0.060428025378197005,"703":0.08603562100055624,"704":-0.05276131751459017,"705":-0.0639229433661181,"706":-0.05848005840765128,"707":-0.10176189514146446,"708":-0.03294185161816587,"709":0.07841862548519471,"710":0.002906800321287882,"711":-0.10057199727299121,"712":-0.18789997010473433,"713":0.01660011610684145,"714":-0.16738140020332357,"715":0.13452064925396912,"716":0.039566338997311976,"717":0.15660675677411312,"718":0.11594743854962301,"719":-0.06347922342174529,"720":0.06503001053121002,"721":-0.04676236826237104,"722":0.09495820343869675,"723":0.07641234212779113,"724":0.15450780628777006,"725":0.1451568674686602,"726":-0.12252565048713437,"727":-0.14767634987946843,"728":-0.18818920366350844,"729":0.1438795635446167,"730":0.13755523519108617,"731":0.09998169932384782,"732":-0.10269682437444032,"733":-0.18880193724242736,"734":0.03060040868728331,"735":0.06416088259012853,"736":0.030669499190517556,"737":0.1608540175019055,"738":0.14396505099177695,"739":0.01349437327148267,"740":0.17252904657277107,"741":-0.0025267072731269716,"742":-0.1862677038490291,"743":-0.17758824378801066,"744":-0.14694833139074662,"745":0.030447644068234712,"746":0.030465824416277994,"747":0.12385197292621906,"748":-0.042685647026619054,"749":0.07836545290175986,"750":0.09878589703449063,"751":0.1499146970195449,"752":-0.19570044334720096,"753":-0.011650869104025786,"754":-0.0999042993406228,"755":-0.13111711341426274,"756":0.18608425508873563,"757":-0.18676936556410176,"758":0.07003546670847956,"759":-0.1695539314980807,"760":0.026893960150713467,"761":0.12184019100216688,"762":-0.044771187404694636,"763":0.13516499856135952,"764":-0.18441019783424514,"765":0.03551211560046024,"766":-0.04327189349537839,"767":0.14200748016555043,"768":0.01507223882558309,"769":0.12943801406710215,"770":0.02221656158550424,"771":0.07565086270890489,"772":0.07586473179897565,"773":0.12008063789953068,"774":0.14737242694034153,"775":-0.05866604481038593,"776":0.1517235670744351,"777":-0.19063170492215256,"778":0.17341796898387565,"779":-0.0855111810683433,"780":0.11423544420683626,"781":0.03336449561850713,"782":-0.15455990084897614,"783":-0.10245323641126668,"784":0.0928918554656806,"785":0.11058758262021075,"786":0.11952478835661483,"787":-0.11795315685109814,"788":-0.06213860607325294,"789":0.1474655151789174,"790":-0.14909664513208767,"791":0.07671718336919339,"792":-0.10793485725724657,"793":-0.18558916666825637,"794":-0.10649884743291284,"795":-0.09218781273367545,"796":-0.09008616577687452,"797":-0.05510982265767501,"798":-0.2160793897193054,"799":-0.08947993184186662,"800":-0.11592529485485267,"801":0.14784215064031123,"802":0.1252203681036137,"803":-0.11710199226902221,"804":0.11734180233095783,"805":0.0980120337302003,"806":0.08057046775707957,"807":0.0524719430387643,"808":0.14294894429068358,"809":-0.12706137582501342,"810":-0.14534490647053636,"811":-0.1751119810226289,"812":0.13302973891095435,"813":0.09503538983645142,"814":-0.06149551082019418,"815":-0.03278382995018546,"816":-0.11090022387676474,"817":-0.05668567352540317,"818":0.0403264518278685,"819":0.17343056567774096,"820":-0.10152053620286274,"821":-0.0282868655027574,"822":-0.05871192647287949,"823":0.029835272943996096,"824":-0.0785927638355336,"825":-0.07144435638255621,"826":-0.06998612035749414,"827":-0.018082808075505694,"828":0.16865020721270277,"829":-0.17516126118158865,"830":0.18805409370920037,"831":-0.014458338881223713,"832":0.07008341127902792,"833":-0.07402945346000121,"834":0.015558818965757568,"835":-0.11272157294862256,"836":0.16526805094651065,"837":0.1084364140985193,"838":-0.03284456538638701,"839":-0.17745205188139462,"840":0.10436723561528508,"841":-0.11988861057737525,"842":0.1585132950571261,"843":-0.13803116362051554,"844":-0.18252762725981192,"845":0.16227459451707937,"846":0.07618316692668842,"847":0.08789518192216501,"848":0.1713503095179018,"849":-0.184355979113023,"850":0.12215684036263412,"851":-0.06186437030319149,"852":0.013588890190441027,"853":-0.13523132289378414,"854":-0.170352346233064,"855":-0.06931002319379007,"856":-0.13655722064019526,"857":-0.08419780787713341,"858":0.012284670050609457,"859":-0.031188121111470467,"860":-0.08861583057832909,"861":0.0019519358649553807,"862":-0.09817089233356247,"863":0.03663290555431248,"864":-0.0915938110247463,"865":0.03985732078900804,"866":0.16334921575902614,"867":0.024476240623795643,"868":0.07057128786474724,"869":-0.08522005333515457,"870":0.2056944470712149,"871":0.07154036829782583,"872":0.1249811986954604,"873":0.015401092474970748,"874":-0.18000638443514236,"875":0.15254024608839864,"876":-0.0018874724664638982,"877":-0.06572699807369517,"878":-0.12886483954387504,"879":-0.16099043214285125,"880":-0.009839382897117051,"881":-0.22085909952372693,"882":-0.16477770358338314,"883":0.16161818125860586,"884":0.18539853861264993,"885":0.02888097996260601,"886":0.035341431307641016,"887":0.14478219966367314,"888":0.09084893383323943,"889":0.010733926714520994,"890":-0.1005274222340763,"891":-0.15303158459320682,"892":0.17957543459892597,"893":-0.18974012249541616,"894":0.2073065868981623,"895":0.0977263289068675,"896":-0.1258978321454705,"897":-0.16346431391436642,"898":0.16347222046504797,"899":0.15601794993167029,"900":0.009213651943182067,"901":-0.027787819015787533,"902":0.15458283135981737,"903":0.07482986403425963,"904":-0.19939318339946557,"905":0.1875658139879885,"906":0.04908857881681711,"907":-0.02013215230306585,"908":-0.16692925030582856,"909":0.008671037629133276,"910":0.033952294458682496,"911":-0.034780362478163095,"912":-0.029183534351183975,"913":0.08475075740653691,"914":0.1362951317589407,"915":0.1795694533885329,"916":-0.1904690203165291,"917":-0.008019340244138444,"918":-0.1323883463873464,"919":0.1715099916436202,"920":-0.06903472828801073,"921":-0.19190855253643252,"922":0.023369063700840447,"923":-0.06660598984071216,"924":0.1418017887660719,"925":0.19935394196521433,"926":-0.11136473684870174,"927":0.06370652709532656,"928":0.16739135608689965,"929":-0.12514570114432533,"930":-0.15837559380624544,"931":0.01344864542029994,"932":0.12823381682105942,"933":0.031986365053930925,"934":0.09429447049377802,"935":-0.09341257890114911,"936":0.012639621038611368,"937":0.19179206105885335,"938":0.1763576792322752,"939":0.11759788062195717,"940":-0.16654863785177318,"941":0.18035035757860024,"942":-0.07629484181486537,"943":0.1462164378025688,"944":0.0409780880806239,"945":0.08287911170922424,"946":0.14278458558105414,"947":-0.007421424037126684,"948":0.1991823459261462,"949":0.040505378981619905,"950":0.009764999034922797,"951":0.02206760167571012,"952":0.05768813997602112,"953":0.15335843764236298,"954":0.014673534755931123,"955":-0.16490858078246548,"956":-0.14444730976133904,"957":0.02178245382114364,"958":0.17699923324136177,"959":-0.07528118297218826,"960":-0.060108258158076404,"961":0.06546746675288348,"962":-0.17703380348032136,"963":0.1167476248413896,"964":-0.1710939580192368,"965":-0.16162107047988364,"966":-0.012621806892934384,"967":0.030986696638942556,"968":0.11510974928518128,"969":-0.05598690396288503,"970":-0.11286954496349189,"971":0.12190316223814683,"972":0.07445130118867722,"973":-0.1540806689566199,"974":0.10098415538498837,"975":0.04857726027092891,"976":-0.19486170652674262,"977":-0.14780099726225596,"978":0.1563079139453787,"979":-0.07128080050433247,"980":0.06143298724840889,"981":-0.0066578973951482,"982":0.12159085118689979,"983":-0.15758834140157116,"984":-0.20652455856565632,"985":0.11896840651903995,"986":-0.04344022077140962,"987":0.10609421873897265,"988":-0.15305075592145115,"989":0.10501593435076549,"990":0.11080095946171566,"991":0.17643582745662895,"992":0.13544483848256517,"993":-0.13389321809867696,"994":0.031780669033914105,"995":-0.03136562898645598,"996":0.028995590878811775,"997":0.04184867830714258,"998":0.11910615941924428,"999":-0.14287215982448787,"1000":-0.1398663606139738,"1001":0.06346051791455577,"1002":0.027025622496357225,"1003":0.07863583183034986,"1004":0.14910548176318403,"1005":0.13575608982986592,"1006":0.18943910263365366,"1007":0.04499233393864256,"1008":0.18311643082533002,"1009":-0.17461056765122082,"1010":-0.14871563584861347,